tree
version=v3
num_class=1
num_tree_per_iteration=1
label_index=0
max_feature_idx=37
objective=regression
feature_names=is_part_of_collection budget runtime original_lang_en original_lang_es original_lang_fr original_lang_it original_lang_ja original_lang_other available_lang_de available_lang_en available_lang_es available_lang_fr available_lang_it available_lang_ja available_lang_other Action Comédie Drame Familial Fantastique Horreur Other Romance prod_BE prod_CA prod_DE prod_FR prod_GB prod_OTHER prod_US vacances_zone_a vacances_zone_b vacances_zone_c jour_ferie holiday month cos_month
feature_infos=[0:1] [3:380000000] [1:366] [0:1] [0:1] [0:1] [0:1] [0:1] [0:1] [0:1] [0:1] [0:1] [0:1] [0:1] [0:1] [0:1] [0:1] [0:1] [0:1] [0:1] [0:1] [0:1] [0:1] [0:1] [0:1] [0:1] [0:1] [0:1] [0:1] [0:1] [0:1] [0:1] [0:1] [0:1] [0:1] [0:4] [1:12] [-2:2]
tree_sizes=2699 2851 2849 2855 2836 2827 2840 2813 2839 2821 2826 2848 2851 2849 2830 2862 2816 2829 2834 2850 2864 2865 2818 2859 2841 2834 2828 2818 2821 2836 2835 2826 2838 2823 2819 2844 2840 2820 2827 2810 2840 2807 2833 2833 2847 2827 2796 2795 2815 2816 2823 2839 2754 2794 2793 2837 2821 2849 2866 2832 2801 2795 2818 2785 2846 2831 2812 2799 2823 2844 2819 2813 2802 2798 2832 2784 2808 2811 2799 2851

Tree=0
num_leaves=31
num_cat=0
split_feature=1 12 1 17 1 16 0 1 2 0 27 16 0 0 37 2 18 17 17 0 1 18 5 2 5 2 21 27 1 3
split_gain=2228.29 616.868 387.339 337.476 180.131 130.852 126.311 112.666 73.1291 71.0112 67.8633 57.9819 56.7856 51.1285 44.8478 38.9037 44.7502 32.5911 31.1512 30.0714 29.9358 29.7147 28.8317 40.8862 25.4039 25.3476 42.793 25.9168 25.4073 25.3178
threshold=35056250.000000007 1.0000000180025095e-35 85500000.000000015 1.0000000180025095e-35 26175000.000000004 1.0000000180025095e-35 1.0000000180025095e-35 24250000.000000004 25.500000000000004 1.0000000180025095e-35 1.0000000180025095e-35 1.0000000180025095e-35 1.0000000180025095e-35 1.0000000180025095e-35 -1 90.500000000000014 1.0000000180025095e-35 1.0000000180025095e-35 1.0000000180025095e-35 1.0000000180025095e-35 22250000.000000004 1.0000000180025095e-35 1.0000000180025095e-35 108.50000000000001 1.0000000180025095e-35 106.50000000000001 1.0000000180025095e-35 1.0000000180025095e-35 8052367.0000000009 1.0000000180025095e-35
decision_type=2 2 2 2 2 2 2 2 2 2 2 2 2 2 2 2 2 2 2 2 2 2 2 2 2 2 2 2 2 2
left_child=1 4 12 5 7 15 10 11 -9 -4 -5 25 17 29 -12 -3 -17 -2 -6 22 -16 -22 -7 -24 -18 26 27 -1 -27 -10
right_child=2 3 9 6 18 19 -8 8 13 -11 14 -13 -14 -15 20 16 24 -19 -20 -21 21 -23 23 -25 -26 28 -28 -29 -30 -31
leaf_value=10.988529571925151 11.184784015689026 11.018212115885158 11.260605732091349 11.059247116861009 11.147155818483622 11.054132804128505 11.265247687748358 11.118501205933185 10.980922451151654 11.348907628388327 11.109421628862927 11.080020799103927 11.230492558983251 11.068425964023488 11.226368037197314 10.999605797139685 11.031097445708085 11.128618036817462 11.072748821676416 11.216240188635368 11.169817282598745 11.120754376997239 11.097673037032818 11.175185334867114 11.085598018167696 11.014764944806188 11.112226938416743 11.084046023277114 11.08855405215246 11.009234387242891
leaf_weight=253 261 289 158 103 138 77 82 57 542 215 248 411 172 110 61 95 108 171 95 28 349 191 213 100 411 79 38 32 114 757
leaf_count=253 261 289 158 103 138 77 82 57 542 215 248 411 172 110 61 95 108 171 95 28 349 191 213 100 411 79 38 32 114 757
internal_value=11.0933 11.0662 11.2314 11.1034 11.0329 11.0699 11.1462 11.0247 11.0075 11.3115 11.1359 11.052 11.1819 11.003 11.1452 11.0485 11.0627 11.1626 11.1168 11.1161 11.16 11.1525 11.109 11.1224 11.0743 11.0297 11.0125 10.9993 11.0584 10.9974
internal_weight=0 4981 977 2355 2626 1321 1034 2393 1466 373 952 927 604 1409 849 903 614 432 233 418 601 540 390 313 519 516 323 285 193 1299
internal_count=5958 4981 977 2355 2626 1321 1034 2393 1466 373 952 927 604 1409 849 903 614 432 233 418 601 540 390 313 519 516 323 285 193 1299
shrinkage=1


Tree=1
num_leaves=31
num_cat=0
split_feature=1 12 1 17 1 16 0 16 5 0 30 2 21 0 0 2 1 27 36 29 2 18 17 18 17 0 1 18 5 2
split_gain=1805.19 501.33 309.002 274.277 147.736 105.113 101.825 93.7948 58.8052 57.5191 53.7644 51.913 54.9074 47.9836 40.9813 37.2719 33.8728 32.9206 34.9495 32.8172 32.1069 33.4449 27.1468 25.8467 25.7407 24.3578 23.6114 23.6064 23.3536 33.1178
threshold=36500000.000000007 1.0000000180025095e-35 85500000.000000015 1.0000000180025095e-35 26175000.000000004 1.0000000180025095e-35 1.0000000180025095e-35 1.0000000180025095e-35 1.0000000180025095e-35 1.0000000180025095e-35 1.0000000180025095e-35 25.500000000000004 1.0000000180025095e-35 1.0000000180025095e-35 1.0000000180025095e-35 84.500000000000014 24832905.000000004 1.0000000180025095e-35 4.5000000000000009 1.0000000180025095e-35 90.500000000000014 1.0000000180025095e-35 1.0000000180025095e-35 1.0000000180025095e-35 1.0000000180025095e-35 1.0000000180025095e-35 18250000.000000004 1.0000000180025095e-35 1.0000000180025095e-35 108.50000000000001
decision_type=2 2 2 2 2 2 2 2 2 2 2 2 2 2 2 2 2 2 2 2 2 2 2 2 2 2 2 2 2 2
left_child=1 4 13 5 7 20 8 11 -5 -4 23 -1 17 24 -14 -10 -17 18 -13 -19 -3 -22 -6 -9 -2 28 -25 -18 -7 -30
right_child=2 3 9 6 22 25 -8 10 15 -11 -12 12 14 -15 -16 16 27 19 -20 -21 21 -23 -24 26 -26 -27 -28 -29 29 -31
leaf_value=0.026148555509280413 0.082232701028257804 -0.067574300996114903 0.15057994961219878 -0.03273184430396673 0.04796374116558582 -0.03524568197015044 0.15475771488939846 -0.038611681146025097 -0.010731714000279198 0.23005165213697354 -0.01443137640991778 -0.06608720769778817 -0.045073419101932584 0.12532937525600726 0.12029675731266087 0.12056378011696672 0.062071713683459977 -0.0007906041953755522 -0.10237381940338795 -0.077804385447923688 -0.081385552960758417 -0.017134031090662888 -0.020474738543181076 -0.045898472746742552 0.031896162416697259 0.11065096458686251 -0.12484064701013267 0.023379951716595959 0.0039405280706678201 0.07370159524772317
leaf_weight=48 257 289 158 103 144 77 82 165 98 215 510 396 47 169 22 71 433 87 805 152 96 519 97 61 168 28 100 248 213 100
leaf_count=48 257 289 158 103 144 77 82 165 98 215 510 396 47 169 22 71 433 87 805 152 96 519 97 61 168 28 100 248 213 100
internal_value=0 -0.0242288 0.125052 0.00927518 -0.0542093 -0.0209083 0.0478284 -0.0617251 0.0386277 0.196388 -0.0347067 -0.076232 -0.0794887 0.0802576 0.0076533 0.0472748 0.0548342 -0.0836642 -0.0904092 -0.0497701 -0.0400825 -0.0271635 0.020418 -0.0664258 0.062335 0.0205593 -0.0949309 0.0479813 0.0140912 0.0262284
internal_weight=0 4991 967 2357 2634 1322 1035 2393 953 373 836 1557 1509 594 69 850 752 1440 1201 239 904 615 241 326 425 418 161 681 390 313
internal_count=5958 4991 967 2357 2634 1322 1035 2393 953 373 836 1557 1509 594 69 850 752 1440 1201 239 904 615 241 326 425 418 161 681 390 313
shrinkage=0.1


Tree=2
num_leaves=31
num_cat=0
split_feature=1 27 17 1 1 0 16 21 16 29 0 0 0 37 17 30 29 23 2 36 29 5 12 2 0 2 3 0 23 2
split_gain=1470.89 373.496 251.253 223.284 174.311 115.49 105.675 83.1705 61.6512 56.4848 54.5213 46.5904 44.5825 35.1987 32.115 27.7798 27.1705 27.1524 25.2179 26.1239 22.4521 22.2052 21.708 21.1883 20.76 20.7532 36.088 19.8981 31.3651 18.9844
threshold=45500000.000000007 1.0000000180025095e-35 1.0000000180025095e-35 26175000.000000004 85500000.000000015 1.0000000180025095e-35 1.0000000180025095e-35 1.0000000180025095e-35 1.0000000180025095e-35 1.0000000180025095e-35 1.0000000180025095e-35 1.0000000180025095e-35 1.0000000180025095e-35 -1 1.0000000180025095e-35 1.0000000180025095e-35 1.0000000180025095e-35 1.0000000180025095e-35 25.500000000000004 4.5000000000000009 1.0000000180025095e-35 1.0000000180025095e-35 1.0000000180025095e-35 108.50000000000001 1.0000000180025095e-35 106.50000000000001 1.0000000180025095e-35 1.0000000180025095e-35 1.0000000180025095e-35 109.50000000000001
decision_type=2 2 2 2 2 2 2 2 2 2 2 2 2 2 2 2 2 2 2 2 2 2 2 2 2 2 2 2 2 2
left_child=1 3 6 7 24 9 16 8 18 13 -9 -6 20 -4 -5 -10 17 29 -1 -20 23 -22 25 -8 -2 -21 -27 28 -16 -3
right_child=4 2 5 14 11 -7 12 10 15 -11 -12 -13 -14 -15 27 -17 -18 -19 19 22 21 -23 -24 -25 -26 26 -28 -29 -30 -31
leaf_value=-0.0032266467277492794 0.068141830814589119 -0.044168858614229763 0.013597296003669624 0.049497823677864747 0.13552195735370057 0.16052825849321559 0.0081158746778192577 -0.038410386758354995 -0.061764416118750158 -0.029529309932933706 0.063867445853164145 0.20704649721120683 0.12876910874886172 0.058930480073684378 -0.064626812576143833 -0.019966789542475855 -0.062463561877699907 0.024118821288246422 -0.057284348023723709 -0.10226040003957071 -0.064149618397156397 0.019905690603579086 -0.048941086024484215 0.064385420806249802 0.11695500718009087 -0.11982330812777325 -0.037022646803560919 0.059841905227478814 0.035484435307044614 0.0031352147947610268
leaf_weight=49 293 425 241 227 158 82 211 130 268 113 87 215 35 592 81 391 305 92 483 576 66 60 136 98 124 82 147 34 51 106
leaf_count=49 293 425 241 227 158 82 211 130 268 113 87 215 35 592 81 391 305 92 483 576 66 60 136 98 124 82 147 34 51 106
internal_value=0 -0.0194264 0.00915417 -0.0447132 0.127083 0.0466832 -0.0184423 -0.0563853 -0.0623884 0.036815 0.00259501 0.176749 0.0201907 0.0458149 0.0250523 -0.0369649 -0.0380085 -0.0260361 -0.0737626 -0.0761897 0.0114545 -0.0241233 -0.0858935 0.0259619 0.082657 -0.0921364 -0.0666718 -0.00837615 -0.0259475 -0.0347259
internal_weight=0 5168 2426 2742 790 1028 1398 2349 2132 946 217 373 470 833 393 659 928 623 1473 1424 435 126 941 309 417 805 229 166 132 531
internal_count=5958 5168 2426 2742 790 1028 1398 2349 2132 946 217 373 470 833 393 659 928 623 1473 1424 435 126 941 309 417 805 229 166 132 531
shrinkage=0.1


Tree=3
num_leaves=31
num_cat=0
split_feature=1 5 17 1 1 0 16 0 1 21 0 3 2 1 10 2 0 10 2 29 1 2 27 37 2 17 16 2 23 18
split_gain=1192.2 343.538 212.714 203.463 108.372 87.2157 86.5588 69.671 58.1781 43.4394 37.7383 36.1545 34.5919 34.5594 30.5998 31.0025 30.1675 29.9432 39.1678 28.6194 28.1145 26.2188 27.8391 27.6774 25.6701 22.3316 22.3244 25.2375 22.8402 20.4911
threshold=35056250.000000007 1.0000000180025095e-35 1.0000000180025095e-35 85500000.000000015 25454694.500000004 1.0000000180025095e-35 1.0000000180025095e-35 1.0000000180025095e-35 24250000.000000004 1.0000000180025095e-35 1.0000000180025095e-35 1.0000000180025095e-35 84.500000000000014 24832905.000000004 1.0000000180025095e-35 38.500000000000007 1.0000000180025095e-35 1.0000000180025095e-35 99.500000000000014 1.0000000180025095e-35 20000002.500000004 106.50000000000001 1.0000000180025095e-35 1.0000000180025095e-35 101.33683587390856 1.0000000180025095e-35 1.0000000180025095e-35 107.50000000000001 1.0000000180025095e-35 1.0000000180025095e-35
decision_type=2 2 2 2 2 2 2 2 2 2 2 2 2 2 2 2 2 2 2 2 2 2 2 2 2 2 2 2 2 2
left_child=1 4 6 16 5 8 13 12 21 17 -5 -10 -4 -3 29 -16 -2 18 -7 -15 -14 22 -1 -23 -8 -6 27 28 -17 -13
right_child=3 2 7 10 25 9 24 -9 11 -11 -12 14 20 19 15 26 -18 -19 -20 -21 -22 23 -24 -25 -26 -27 -28 -29 -30 -31
leaf_value=-0.059926799006306569 0.051039882172847655 0.030764889471056697 -0.016685825698213308 0.12196976138821132 0.041547168057950792 -0.0041289507100979485 -0.00064169226859663129 0.13879853704491177 -0.091863775450183968 0.059227019757196145 0.18634184631497364 0.0038999185787842554 0.10497304686987903 -0.026464353550207056 0.039383290252751779 -0.11022446274470826 0.1005600063108601 -0.0014874518228073915 -0.17609159803161256 -0.066233577456899936 0.038944968651644991 -0.043694056829979525 0.0073388861692769251 0.011971297520860274 0.05428741982692864 -0.016902509593480341 -0.046163533546717511 -0.046548081982669465 -0.048556836888000568 -0.068590766980698145
leaf_weight=423 432 74 103 158 159 27 183 74 446 91 215 119 71 505 27 273 172 156 26 282 703 171 72 187 159 111 263 141 77 58
leaf_count=423 432 74 103 158 159 27 183 74 446 91 215 119 71 505 27 273 172 156 26 282 703 171 72 187 159 111 263 141 77 58
internal_value=0 -0.0198113 0.010275 0.101003 -0.0427353 -0.0490976 -0.0176654 0.0456192 -0.0558308 0.00155918 0.159074 -0.0683451 0.0377569 -0.0345712 -0.0573959 -0.0659041 0.0651416 -0.0235498 -0.088488 -0.0407146 0.0450018 -0.0352329 -0.0501427 -0.0146175 0.0248955 0.0175179 -0.0696743 -0.0822677 -0.0966576 -0.0198541
internal_weight=0 4981 2154 977 2827 2557 1203 951 2257 300 373 1404 877 861 958 781 604 209 53 787 774 853 495 358 342 270 754 491 350 177
internal_count=5958 4981 2154 977 2827 2557 1203 951 2257 300 373 1404 877 861 958 781 604 209 53 787 774 853 495 358 342 270 754 491 350 177
shrinkage=0.1


Tree=4
num_leaves=31
num_cat=0
split_feature=1 27 1 17 1 0 16 21 16 1 29 0 0 37 2 18 29 0 5 17 23 2 30 0 18 1 36 2 2 36
split_gain=975.841 235.481 202.166 163.825 81.3866 79.5142 78.5761 58.4117 46.4623 42.9847 37.4378 33.7666 32.8153 28.2419 25.5923 25.6554 30.1986 24.6786 24.6282 24.1729 24.1748 26.5344 20.1711 18.6309 18.3053 20.1264 24.3687 17.7245 17.6443 20.7041
threshold=57500000.000000007 1.0000000180025095e-35 26175000.000000004 1.0000000180025095e-35 110500000.00000001 1.0000000180025095e-35 1.0000000180025095e-35 1.0000000180025095e-35 1.0000000180025095e-35 25050000.000000004 1.0000000180025095e-35 1.0000000180025095e-35 1.0000000180025095e-35 -1 90.500000000000014 1.0000000180025095e-35 1.0000000180025095e-35 1.0000000180025095e-35 1.0000000180025095e-35 1.0000000180025095e-35 1.0000000180025095e-35 114.50000000000001 1.0000000180025095e-35 1.0000000180025095e-35 1.0000000180025095e-35 18250000.000000004 6.5000000000000009 108.50000000000001 25.500000000000004 4.5000000000000009
decision_type=2 2 2 2 2 2 2 2 2 2 2 2 2 2 2 2 2 2 2 2 2 2 2 2 2 2 2 2 2 2
left_child=1 2 7 6 23 10 14 8 28 17 13 -9 19 -5 -3 -16 -17 18 -8 -4 21 -21 24 -2 -10 -26 -27 -20 -1 -30
right_child=4 3 12 5 -6 -7 9 11 22 -11 -12 -13 -14 -15 15 16 -18 -19 27 20 -22 -23 -24 -25 25 26 -28 -29 29 -31
leaf_value=-0.0019939760468444044 0.072359492619999785 -0.056270145051701762 0.03063392188101929 0.0092261844034465159 0.16061413672579236 0.13277359181139844 -0.035073558624278293 -0.028932059411622153 -0.022437351847451832 0.11600936257413455 -0.0227829847306661 0.051558000140491583 0.072384263536779681 0.049833122532979633 -0.072150600985510321 0.005388480837524791 -0.041839595517993385 0.11091599412586378 0.0031084198254054344 -0.073543081153184184 0.030278924864435952 0.049826020057397807 -0.014565532238971765 0.11750526500316404 -0.025271703370918448 -0.15430852135886319 -0.050212918425148183 0.055510630978746936 -0.046194577828704286 -0.071663717306042138
leaf_weight=49 267 272 239 241 247 83 114 130 126 42 115 87 107 592 82 360 217 23 206 84 63 22 391 139 52 46 44 94 483 941
leaf_count=49 267 272 239 241 247 83 114 130 126 42 115 87 107 592 82 360 217 23 206 84 63 22 391 139 52 46 44 94 483 941
internal_value=0 -0.0141989 -0.0336495 0.00862234 0.115352 0.0389184 -0.0135303 -0.0460897 -0.0511206 0.0193808 0.0307011 0.00333815 0.0230927 0.0380849 -0.0304631 -0.0198114 -0.0123732 0.0100939 0.00449263 0.0101658 -0.0187803 -0.0479382 -0.02905 0.0878158 -0.0501821 -0.0748006 -0.103417 0.0195278 -0.0609947 -0.063025
internal_weight=0 5305 2864 2441 653 1031 1410 2349 2132 479 948 217 515 833 931 659 577 437 414 408 169 106 659 406 268 142 90 300 1473 1424
internal_count=5958 5305 2864 2441 653 1031 1410 2349 2132 479 948 217 515 833 931 659 577 437 414 408 169 106 659 406 268 142 90 300 1473 1424
shrinkage=0.1


Tree=5
num_leaves=31
num_cat=0
split_feature=1 27 17 1 1 0 16 21 16 29 0 0 0 2 17 37 1 1 1 5 2 3 2 12 18 30 23 1 1 15
split_gain=792.419 208.432 133.499 117.834 91.5333 63.4475 60.6534 47.3134 37.6345 33.2605 30.3445 27.3509 26.1294 25.6687 24.9912 22.4415 21.1903 19.3233 19.2527 19.9488 19.0252 17.5515 17.1894 21.1713 17.5532 16.3386 17.3602 16.1579 19.0491 15.3191
threshold=49950000.000000007 1.0000000180025095e-35 1.0000000180025095e-35 26175000.000000004 109500000.00000001 1.0000000180025095e-35 1.0000000180025095e-35 1.0000000180025095e-35 1.0000000180025095e-35 1.0000000180025095e-35 1.0000000180025095e-35 1.0000000180025095e-35 1.0000000180025095e-35 77.500000000000014 1.0000000180025095e-35 -1 24832905.000000004 6507583.5000000009 25454694.500000004 1.0000000180025095e-35 130.50000000000003 1.0000000180025095e-35 90.500000000000014 1.0000000180025095e-35 1.0000000180025095e-35 1.0000000180025095e-35 1.0000000180025095e-35 24832905.000000004 11160000.000000002 1.0000000180025095e-35
decision_type=2 2 2 2 2 2 2 2 2 2 2 2 2 2 2 2 2 2 2 2 2 2 2 2 2 2 2 2 2 2
left_child=1 3 6 7 12 9 16 8 29 13 18 -9 -2 -4 -5 -15 17 -3 19 21 -6 -8 -18 -24 -25 -10 -27 28 -21 -1
right_child=4 2 5 14 20 -7 10 11 25 -11 -12 -13 -14 15 -16 -17 22 -19 -20 27 -22 -23 23 24 -26 26 -28 -29 -30 -31
leaf_value=-0.050317861473961549 0.053896415048986235 -0.029641413745971831 -0.074879693488279983 0.037844068574782272 0.12268611873047693 0.1190664915867695 -0.10033246901751097 -0.026038852793594393 -0.045163864650427307 -0.023539620401766315 0.1020612792749154 0.04640219918098943 0.10277585043334721 0.010892910152961512 -0.012191185067983808 0.047645375818064009 -0.055814275488029336 0.046611397581941945 0.10004467970945619 0.018522945397666524 0.17885654614023541 -0.0091771870743223415 -0.069874284290434685 -0.064247502696207451 -0.0078619417721702174 -0.0059957801394958585 -0.075527300108224157 0.0062134428811836838 0.13567581750229812 -0.077615475104575005
leaf_weight=1226 341 65 21 236 175 82 28 130 268 113 38 87 161 233 173 579 245 68 22 35 92 86 85 64 402 351 40 242 23 247
leaf_count=1226 341 65 21 236 175 82 28 130 268 113 38 87 161 233 173 579 245 68 22 35 92 86 85 64 402 351 40 242 23 247
internal_value=0 -0.0140394 0.00730799 -0.0328558 0.094734 0.0346846 -0.0127513 -0.0414808 -0.0460086 0.0273703 0.0163571 0.00300433 0.0695729 0.0342764 0.01668 0.0370994 -0.0276031 0.00934499 0.00888747 0.00404336 0.142041 -0.0315662 -0.0337766 -0.0239776 -0.0156059 -0.026145 -0.013109 0.017575 0.0649801 -0.0548953
internal_weight=0 5189 2431 2758 769 1028 1403 2349 2132 946 474 217 502 833 409 812 929 133 436 414 267 114 796 551 466 659 391 300 58 1473
internal_count=5958 5189 2431 2758 769 1028 1403 2349 2132 946 474 217 502 833 409 812 929 133 436 414 267 114 796 551 466 659 391 300 58 1473
shrinkage=0.1


Tree=6
num_leaves=31
num_cat=0
split_feature=1 12 1 17 1 1 1 18 2 1 0 2 1 17 28 20 29 2 16 1 17 36 3 0 23 37 1 2 2 18
split_gain=645.845 156.858 143.33 92.9966 53.8052 53.7076 52.7836 42.5532 35.3643 33.6339 32.876 27.9272 25.0973 24.45 28.3815 23.6279 32.0216 23.2596 21.7099 21.3722 19.8576 19.9848 19.0846 17.2992 16.7016 15.5128 15.3278 15.2266 14.9267 16.609
threshold=57500000.000000007 1.0000000180025095e-35 27220000.000000004 1.0000000180025095e-35 25050000.000000004 131500000.00000001 24250000.000000004 1.0000000180025095e-35 25.500000000000004 24832905.000000004 1.0000000180025095e-35 90.500000000000014 6209050.0000000009 1.0000000180025095e-35 1.0000000180025095e-35 1.0000000180025095e-35 1.0000000180025095e-35 98.500000000000014 1.0000000180025095e-35 8052367.0000000009 1.0000000180025095e-35 7.5000000000000009 1.0000000180025095e-35 1.0000000180025095e-35 1.0000000180025095e-35 -1.366025403784439 74250000.000000015 127.50000000000001 48.500000000000007 1.0000000180025095e-35
decision_type=2 2 2 2 2 2 2 2 2 2 2 2 2 2 2 2 2 2 2 2 2 2 2 2 2 2 2 2 2 2
left_child=1 2 6 4 9 20 13 11 -8 12 25 -5 -3 19 -15 28 -17 -9 24 23 26 -22 -19 -1 27 -4 -2 -11 -10 -30
right_child=5 3 10 7 -6 -7 8 17 15 18 -12 -13 -14 14 -16 16 -18 22 -20 -21 21 -23 -24 -25 -26 -27 -28 -29 29 -31
leaf_value=-0.040075799661904707 0.061953426101023251 -0.018179078194377727 -0.031758157785488177 0.019059076709730588 0.11060923991931811 0.13945662272137566 0.02813945350220852 -0.02385171617891161 -0.11325903631408106 -0.038498219683955386 0.065883269610746614 0.060093735911390361 0.052122211228725651 -0.055445824202868844 0.02842672842865189 0.040869106747759662 -0.065391215147837162 0.042185730813071136 0.0021360038628487235 0.0087029976324281954 0.082614253990111811 0.016512544560763572 -0.049431334256573964 0.027251566444402155 0.00772524516467216 0.016935250770171027 0.11002982388405752 0.028333015067619274 -0.040955150787295266 -0.064090729085054074
leaf_weight=224 105 86 83 272 36 185 57 179 44 643 123 425 124 253 48 61 53 144 308 356 93 90 27 46 106 309 180 36 550 712
leaf_count=224 105 86 83 272 36 185 57 179 44 643 123 425 124 253 48 61 53 144 308 356 93 90 27 46 106 309 180 36 550 712
internal_value=0 -0.0115512 -0.0270976 0.00746799 -0.00998948 0.0938426 -0.0373538 0.0297942 -0.0490928 -0.0133214 0.0207781 0.0440802 0.0233322 -0.0186499 -0.0420708 -0.052193 -0.00853262 0.00134469 -0.0203638 -0.0073884 0.0758114 0.0501052 0.0277199 -0.0286052 -0.0291917 0.00662517 0.0923175 -0.0349549 -0.0560041 -0.0540079
internal_weight=0 5305 2919 2386 1339 653 2404 1047 1477 1303 515 697 210 927 301 1420 114 350 1093 626 468 183 171 270 785 392 285 679 1306 1262
internal_count=5958 5305 2919 2386 1339 653 2404 1047 1477 1303 515 697 210 927 301 1420 114 350 1093 626 468 183 171 270 785 392 285 679 1306 1262
shrinkage=0.1


Tree=7
num_leaves=31
num_cat=0
split_feature=1 5 17 1 0 1 1 1 0 10 2 29 0 1 1 1 37 18 37 22 36 1 37 17 1 18 2 2 35 2
split_gain=523.423 172.549 95.2278 90.5097 58.6776 44.8166 37.1907 35.6096 34.683 27.9471 34.0371 26.3918 23.6517 22.2118 30.3663 21.5458 20.7979 20.3409 19.4975 19.2584 19.2273 19.1712 18.2599 17.3526 16.1036 15.1122 15.0966 14.4353 14.0619 13.8435
threshold=35056250.000000007 1.0000000180025095e-35 1.0000000180025095e-35 85500000.000000015 1.0000000180025095e-35 24832905.000000004 25050000.000000004 23500000.000000004 1.0000000180025095e-35 1.0000000180025095e-35 98.500000000000014 1.0000000180025095e-35 1.0000000180025095e-35 24832905.000000004 4850000.0000000009 18250000.000000004 -1.366025403784439 1.0000000180025095e-35 0.50000000000000033 1.0000000180025095e-35 3.5000000000000004 10000002.500000002 -1.366025403784439 1.0000000180025095e-35 63300000.000000007 1.0000000180025095e-35 88.500000000000014 104.50000000000001 1.5000000000000002 59.000000000000007
decision_type=2 2 2 2 2 2 2 2 2 2 2 2 2 2 2 2 2 2 2 2 2 2 2 2 2 2 2 2 2 2
left_child=1 4 5 18 6 21 7 15 13 10 -6 26 27 14 -4 -1 -11 19 24 -9 -17 -3 -15 -19 -2 -18 29 -5 -10 -7
right_child=3 2 8 12 9 11 -8 17 28 16 -12 -13 -14 22 -16 20 25 23 -20 -21 -22 -23 -24 -25 -26 -27 -28 -29 -30 -31
leaf_value=-0.029253543364154134 0.00999370713208644 0.018467981642798375 -0.023507237603718586 0.033737706596840104 0.017692261611955473 0.015187666357256647 0.0039303423608117536 -0.021848253076313995 0.12502688671339232 -0.02017574822132635 -0.13328021865870274 -0.040213800647206671 0.12724300123924434 -0.0055223605967093005 0.11447255804107107 0.086621307016446672 0.054473350950492883 -0.050545031305050885 0.060972987681115358 -0.060452606801286737 -0.0054595189097409067 0.099601062768626791 0.029810694669795825 -0.08507415012557494 0.060480263059337937 -0.010211125785048972 0.0012198154045160794 0.097756738744321336 0.028334862277621317 -0.051014629138257953
leaf_weight=707 212 95 22 53 32 43 226 404 53 82 28 344 215 193 58 29 156 633 302 190 104 42 604 189 90 47 560 105 21 119
leaf_count=707 212 95 22 53 32 43 226 404 53 82 28 344 215 193 58 29 156 633 302 190 104 42 604 189 90 47 560 105 21 119
internal_value=0 -0.013127 0.00819551 0.0669248 -0.0293734 -0.0104991 -0.0347448 -0.0386191 0.0318439 0.00926903 -0.0527616 -0.0174185 0.105656 0.0262966 0.0765281 -0.0223072 0.0223281 -0.0482957 0.0430062 -0.0341964 0.0146183 0.0433409 0.0212545 -0.0584842 0.0250394 0.0394971 -0.00655758 0.076282 0.0975873 -0.0334424
internal_weight=0 4981 2154 977 2827 1203 2482 2256 951 345 60 1066 373 877 80 840 285 1416 604 594 133 137 797 822 302 203 722 158 74 162
internal_count=5958 4981 2154 977 2827 1203 2482 2256 951 345 60 1066 373 877 80 840 285 1416 604 594 133 137 797 822 302 203 722 158 74 162
shrinkage=0.1


Tree=8
num_leaves=31
num_cat=0
split_feature=1 27 1 0 29 1 1 17 17 3 0 5 2 2 1 2 0 0 1 2 18 36 1 36 2 2 2 17 37 28
split_gain=425.461 116.214 85.5541 83.2553 60.2104 44.7057 38.9798 36.1347 31.457 29.7574 24.1714 22.1431 21.7273 20.573 20.2401 20.1722 19.649 18.3334 17.8012 17.7756 16.122 15.2476 15.2221 19.9298 18.0431 30.1437 14.9615 14.5173 14.511 13.3297
threshold=57500000.000000007 1.0000000180025095e-35 26175000.000000004 1.0000000180025095e-35 1.0000000180025095e-35 25454694.500000004 176600001.50000003 1.0000000180025095e-35 1.0000000180025095e-35 1.0000000180025095e-35 1.0000000180025095e-35 1.0000000180025095e-35 88.500000000000014 114.50000000000001 24832905.000000004 83.500000000000014 1.0000000180025095e-35 1.0000000180025095e-35 22250000.000000004 114.50000000000001 1.0000000180025095e-35 2.5000000000000004 7550000.0000000009 4.5000000000000009 77.500000000000014 90.500000000000014 140.50000000000003 1.0000000180025095e-35 1.0000000180025095e-35 1.0000000180025095e-35
decision_type=2 2 2 2 2 2 2 2 2 2 2 2 2 2 2 2 2 2 2 2 2 2 2 2 2 2 2 2 2 2
left_child=1 2 8 4 5 7 17 12 9 26 13 22 -3 -11 -6 -9 19 27 -17 -4 -20 -21 -10 -24 -25 -26 -1 -2 -15 -27
right_child=6 3 16 -5 14 -7 -8 15 11 10 -12 -13 -14 28 -16 18 -18 -19 20 21 -22 -23 23 24 25 29 -28 -29 -30 -31
leaf_value=-0.037891406828046592 0.06734003590948949 -0.035684154517746168 -0.011878328164143918 0.081528058568281797 0.0068020910584836976 0.12295829075787748 0.1397554247950514 -0.023760314773535358 -0.019279800187611936 -0.027710798896340649 0.023924064660939028 0.0026051589349905652 0.0028313233970124847 -0.023978172140639454 -0.038118867007170931 0.074284005986574364 0.052014838080748776 0.088101514211019222 0.034884553489564603 0.087129485410814347 0.0019405044263943899 0.013003769527013237 -0.030467778834202833 0.012194159950899043 -0.13509938461755061 -0.07283703914767474 -0.10538528596716268 0.023850541600647073 0.029940892007898508 -0.0098931910326847672
leaf_weight=533 213 184 260 140 133 35 84 80 101 720 147 75 718 84 408 78 107 236 441 37 224 111 148 23 76 245 35 120 123 39
leaf_count=533 213 184 260 140 133 35 84 80 101 720 147 75 718 84 408 78 107 236 441 37 224 111 148 23 76 245 35 120 123 39
internal_value=0 -0.00937548 -0.0230397 0.00665659 0.00210118 0.0110697 0.0761668 0.00879947 -0.0311324 -0.023539 -0.013749 -0.0487682 -0.00502549 -0.019723 -0.0270755 0.0239515 0.0138727 0.0667793 0.0290887 0.00386972 0.0237876 0.0315352 -0.0548647 -0.0616332 -0.0736762 -0.0791624 -0.0420504 0.0516681 0.00806069 -0.0641933
internal_weight=0 5305 2864 2441 2301 1760 653 1725 2349 1642 1074 707 902 927 541 823 515 569 743 408 665 148 632 531 383 360 568 333 207 284
internal_count=5958 5305 2864 2441 2301 1760 653 1725 2349 1642 1074 707 902 927 541 823 515 569 743 408 665 148 632 531 383 360 568 333 207 284
shrinkage=0.1


Tree=9
num_leaves=31
num_cat=0
split_feature=1 5 17 1 0 2 16 2 0 16 24 10 2 23 2 2 3 2 2 1 36 37 27 19 27 33 18 10 1 2
split_gain=345.691 119.268 63.4379 61.7298 40.7764 34.7556 29.5463 26.449 28.804 21.0665 20.1775 19.64 26.5068 17.8941 17.7345 19.9899 18.0222 21.552 16.998 16.6941 16.6 16.3869 15.9663 15.7193 15.6914 14.9802 24.3324 34.5158 17.2027 14.4701
threshold=35056250.000000007 1.0000000180025095e-35 1.0000000180025095e-35 85500000.000000015 1.0000000180025095e-35 109.50000000000001 1.0000000180025095e-35 84.500000000000014 1.0000000180025095e-35 1.0000000180025095e-35 1.0000000180025095e-35 1.0000000180025095e-35 99.500000000000014 1.0000000180025095e-35 95.500000000000014 25.500000000000004 1.0000000180025095e-35 124.50000000000001 130.50000000000003 24832905.000000004 4.5000000000000009 -1.366025403784439 1.0000000180025095e-35 1.0000000180025095e-35 1.0000000180025095e-35 1.0000000180025095e-35 1.0000000180025095e-35 1.0000000180025095e-35 15887474.000000002 113.50000000000001
decision_type=2 2 2 2 2 2 2 2 2 2 2 2 2 2 2 2 2 2 2 2 2 2 2 2 2 2 2 2 2 2
left_child=1 4 5 22 6 9 14 -4 10 13 19 12 -6 23 15 -1 -16 24 -5 -9 -10 -13 29 -3 25 26 27 -18 -29 -2
right_child=3 2 7 18 11 -7 -8 8 20 -11 -12 21 -14 -15 16 -17 17 -19 -20 -21 -22 -23 -24 -25 -26 -27 -28 28 -30 -31
leaf_value=0.01810932987369597 0.015875322070194774 -0.036690444153719907 -0.019515779305685751 0.072032658184664727 0.016158722513214204 0.023779443730007122 -0.013628750446011001 0.081732534671262402 0.1524852232429488 0.0081110324898405091 -0.0233997783164442 -0.018742759553602013 -0.11744415712784287 0.024288389220600948 -0.049920943433565929 -0.055056040531630858 0.029978469014167786 0.023615558672043468 0.11814927112086322 0.027386979397318784 0.051437515856043718 0.034225444617828019 0.085495542249243175 0.014210069404148006 0.0068585665715215479 -0.0073361216319237383 -0.029694696505487502 -0.19219501573931089 -0.088092100468317155 0.048907172342969318
leaf_weight=40 323 563 111 257 33 265 857 62 29 243 72 82 27 64 285 562 20 97 116 640 37 203 56 68 113 149 280 22 57 225
leaf_count=40 323 563 111 257 33 265 857 62 29 243 72 82 27 64 285 562 20 97 116 640 37 203 56 68 113 149 280 22 57 225
internal_value=0 -0.010668 0.00705936 0.0543882 -0.0241752 -0.00819904 -0.0286528 0.026361 0.0324233 -0.0172335 0.0270159 0.00803798 -0.0439626 -0.0260949 -0.0365763 -0.0501946 -0.0285624 -0.0203141 0.0863746 0.0321867 0.0958373 0.0189855 0.0346351 -0.0312051 -0.0269619 -0.0341999 -0.0447612 -0.0873734 -0.117083 0.0294377
internal_weight=0 4981 2154 977 2827 1203 2482 951 840 938 774 345 60 695 1625 602 1023 738 373 702 66 285 604 631 641 528 379 99 79 548
internal_count=5958 4981 2154 977 2827 1203 2482 951 840 938 774 345 60 695 1625 602 1023 738 373 702 66 285 604 631 641 528 379 99 79 548
shrinkage=0.1


Tree=10
num_leaves=31
num_cat=0
split_feature=1 27 1 0 29 1 1 2 17 17 3 1 0 2 17 5 16 16 18 2 2 2 23 0 2 1 36 2 2 37
split_gain=283.39 79.2679 58.5137 57.0536 43.155 34.0087 28.3321 24.7098 24.2764 21.6753 21.325 16.2308 15.5181 15.2067 15.0169 14.4048 14.3395 14.1601 20.4168 16.4406 16.2392 13.9336 13.8014 13.4468 18.1776 12.646 16.5689 13.7988 24.5824 12.4932
threshold=57500000.000000007 1.0000000180025095e-35 26175000.000000004 1.0000000180025095e-35 1.0000000180025095e-35 25454694.500000004 131500000.00000001 83.500000000000014 1.0000000180025095e-35 1.0000000180025095e-35 1.0000000180025095e-35 24832905.000000004 1.0000000180025095e-35 118.50000000000001 1.0000000180025095e-35 1.0000000180025095e-35 1.0000000180025095e-35 1.0000000180025095e-35 1.0000000180025095e-35 103.50000000000001 90.500000000000014 23.500000000000004 1.0000000180025095e-35 1.0000000180025095e-35 114.50000000000001 7550000.0000000009 4.5000000000000009 79.500000000000014 90.500000000000014 -1
decision_type=2 2 2 2 2 2 2 2 2 2 2 2 2 2 2 2 2 2 2 2 2 2 2 2 2 2 2 2 2 2
left_child=1 2 8 4 5 7 16 21 10 17 -1 -6 13 -12 -4 25 -2 18 19 -9 -20 -3 23 24 -16 -10 -27 -28 -29 -19
right_child=6 3 14 -5 11 -7 -8 9 15 -11 12 -13 -14 -15 22 -17 -18 29 20 -21 -22 -23 -24 -25 -26 26 27 28 -30 -31
leaf_value=-0.034629347458486712 0.018919796561348744 0.052488607224076993 0.026278015359285575 0.067569018623658592 0.0074541276572902401 0.10699926052774703 0.095292360540982834 -0.027347367840952111 -0.013605077289930073 0.023918716460754684 -0.0211967783440105 -0.032772466921939185 0.019514392602707254 0.013125999369207889 -0.065816186825256973 0.00031323398152987165 0.059229956718660631 -0.013366441284631228 -0.045391296325668469 -0.12325825073445838 0.0083219226974671819 -0.03572484262216815 0.02798213266675741 0.022235948902865253 0.036294216679578481 -0.023792257329851792 0.010222064038195339 -0.11901754401500027 -0.054649670639003195 0.03249623060716355
leaf_weight=568 118 20 296 140 133 35 185 70 101 743 772 408 147 155 84 75 350 86 67 24 352 171 71 42 22 148 24 75 284 192
leaf_count=568 118 20 296 140 133 35 185 70 101 743 772 408 147 155 84 75 350 86 67 24 352 171 71 42 22 148 24 75 284 192
internal_value=0 -0.00765167 -0.0189367 0.00558896 0.0018179 0.00941066 0.0621625 0.0074306 -0.0256295 0.0116538 -0.0189587 -0.0228831 -0.0106711 -0.0154578 0.01159 -0.0411222 0.0490663 0.000133184 -0.00971621 -0.0518353 -0.000267065 -0.0264878 -0.00826231 -0.0256498 -0.0446235 -0.0460393 -0.0522086 -0.0631893 -0.068097 0.0183085
internal_weight=0 5305 2864 2441 2301 1760 653 1725 2349 1534 1642 541 1074 927 515 707 468 791 513 94 419 191 219 148 106 632 531 383 359 278
internal_count=5958 5305 2864 2441 2301 1760 653 1725 2349 1534 1642 541 1074 927 515 707 468 791 513 94 419 191 219 148 106 632 531 383 359 278
shrinkage=0.1


Tree=11
num_leaves=31
num_cat=0
split_feature=1 5 1 1 17 1 0 1 18 12 19 2 22 37 2 2 2 16 12 2 17 17 28 23 2 36 2 17 37 2
split_gain=229.843 71.85 48.172 46.2187 39.9236 35.4289 33.8709 27.2764 27.5921 17.4958 20.5319 18.1196 17.239 16.9965 16.4199 16.0621 16.0477 16.9858 15.6928 15.1923 14.9796 14.9623 15.2664 15.5724 14.5197 14.1534 14.0601 12.7311 12.3918 15.6095
threshold=49950000.000000007 1.0000000180025095e-35 25454694.500000004 24832905.000000004 1.0000000180025095e-35 7950000.0000000009 1.0000000180025095e-35 24250000.000000004 1.0000000180025095e-35 1.0000000180025095e-35 1.0000000180025095e-35 109.50000000000001 1.0000000180025095e-35 -1.366025403784439 148.50000000000003 109.50000000000001 96.500000000000014 1.0000000180025095e-35 1.0000000180025095e-35 154.50000000000003 1.0000000180025095e-35 1.0000000180025095e-35 1.0000000180025095e-35 1.0000000180025095e-35 91.500000000000014 3.5000000000000004 123.50000000000001 1.0000000180025095e-35 -1.366025403784439 88.500000000000014
decision_type=2 2 2 2 2 2 2 2 2 2 2 2 2 2 2 2 2 2 2 2 2 2 2 2 2 2 2 2 2 2
left_child=1 2 7 5 9 -3 18 14 12 10 25 28 -9 -6 15 20 17 -14 27 -10 -1 -4 23 24 -23 -5 -8 -2 -11 -30
right_child=6 3 21 4 13 -7 26 8 19 11 -12 -13 16 -15 -16 -17 -18 -19 -20 -21 -22 22 -24 -25 -26 -27 -28 -29 29 -31
leaf_value=-0.004926449824180011 0.039864021229436553 0.0091697259307757292 0.026570025827885341 0.0014868415616176747 -0.0078226899611763667 0.08766825053648189 0.059106764619819063 -0.005784225357437384 -0.041361098821379672 -0.041140815309745116 0.048087457790970803 0.019870462557486264 -0.040328128197338983 0.025232619686122854 -0.087286761623841747 0.010612970752199573 -0.078506780443260343 0.04109100244720193 0.086674106912687426 -0.12956459389999508 -0.035082849811477336 0.016196948941797018 0.071032375026316874 0.022007324049870172 -0.063226635940372949 -0.081391645625404935 0.10158070053458215 0.0023431575000676867 -0.033196973530467341 0.0025197005260709396
leaf_weight=420 246 114 280 27 204 116 207 471 827 137 20 201 104 655 27 311 72 34 48 20 271 32 21 60 82 87 125 143 172 424
leaf_count=420 246 114 280 27 204 116 207 471 827 137 20 201 104 655 27 311 72 34 48 20 271 32 21 60 82 87 125 143 172 424
internal_value=0 -0.00756112 -0.0174862 0.00639006 0.0013329 0.0487603 0.0510204 -0.0229188 -0.0313945 -0.0115759 -0.045367 -0.0067279 -0.0164081 0.0173825 -0.010333 -0.00825941 -0.0402358 -0.0202683 0.0327276 -0.0434438 -0.0167533 0.0117588 -0.00950853 -0.019229 -0.0409323 -0.0617625 0.0750985 0.026071 -0.0140216 -0.0077878
internal_weight=0 5189 3032 2157 1927 230 769 2557 1528 1068 134 934 681 859 1029 1002 210 138 437 847 691 475 195 174 114 114 332 389 733 596
internal_count=5958 5189 3032 2157 1927 230 769 2557 1528 1068 134 934 681 859 1029 1002 210 138 437 847 691 475 195 174 114 114 332 389 733 596
shrinkage=0.1


Tree=12
num_leaves=31
num_cat=0
split_feature=1 27 0 1 29 1 1 21 16 1 1 17 0 18 1 1 18 36 34 2 2 2 2 2 2 2 35 29 17 2
split_gain=188.375 54.3205 43.3537 37.4944 31.2717 25.8775 21.6879 19.9934 18.5301 18.4093 22.4009 14.6018 13.5319 13.1556 20.3196 19.7459 12.5128 12.095 12.4475 12.5042 20.9664 18.9772 25.4083 13.3827 12.5605 13.2107 12.0782 11.6635 12.929 11.1821
threshold=57500000.000000007 1.0000000180025095e-35 1.0000000180025095e-35 26175000.000000004 1.0000000180025095e-35 25454694.500000004 176600001.50000003 1.0000000180025095e-35 1.0000000180025095e-35 24250000.000000004 5002800.0000000009 1.0000000180025095e-35 1.0000000180025095e-35 1.0000000180025095e-35 23500000.000000004 12484194.500000002 1.0000000180025095e-35 2.5000000000000004 1.0000000180025095e-35 68.500000000000014 83.500000000000014 48.500000000000007 38.500000000000007 79.500000000000014 85.500000000000014 95.500000000000014 2.5000000000000004 1.0000000180025095e-35 1.0000000180025095e-35 90.500000000000014
decision_type=2 2 2 2 2 2 2 2 2 2 2 2 2 2 2 2 2 2 2 2 2 2 2 2 2 2 2 2 2 2
left_child=1 3 4 7 5 9 -2 8 17 10 -3 -11 -5 26 15 -15 29 -1 19 21 23 22 -19 -21 -22 27 -10 -26 -29 -13
right_child=6 2 -4 12 -6 -7 -8 -9 13 11 -12 16 -14 14 -16 -17 -18 18 -20 20 24 -23 -24 -25 25 -27 -28 28 -30 -31
leaf_value=-0.0091053474193299785 0.043679038425113663 -0.016344889963696162 0.058750928719860644 0.00055475820046529988 -0.019591805151605191 0.093025112253214637 0.098112958625313787 0.0079800342014359864 0.017960052489526226 -0.0073019940740890917 0.054712015740573411 0.0029858072437345985 0.040508755975376787 -0.029399053655150865 -0.04583587999085105 0.039826101226131679 -0.0065739934366070649 0.0071820421160997032 0.042310992592857005 -0.053359115751823644 0.022178843476482343 0.054876582888332574 -0.11091822142954227 -0.14042840028001416 -0.073099878618366407 -0.029871248509945044 -0.025613147773676449 -0.055693932420108477 0.012822271617395537 0.033491630485572195
leaf_weight=231 569 63 140 408 541 35 84 217 217 774 150 200 107 90 186 76 237 56 21 41 37 37 27 31 161 709 90 80 42 301
leaf_count=231 569 63 140 408 541 35 84 217 217 774 150 200 107 90 186 76 237 56 21 41 37 37 27 31 161 709 90 80 42 301
internal_value=0 -0.00623843 0.00472236 -0.0155804 0.00143509 0.00789847 0.0506813 -0.0209378 -0.0238811 0.00617127 0.0336952 0.00229389 0.00885588 -0.00994303 -0.0231381 0.00229439 0.0123579 -0.0301169 -0.0340248 -0.0353377 -0.0386786 -0.0046847 -0.0312361 -0.0908473 -0.0350283 -0.0371621 0.00518615 -0.0554278 -0.0321064 0.0213137
internal_weight=0 5305 2441 2864 2301 1760 653 2349 2132 1725 213 1512 515 659 352 166 738 1473 1242 1221 1101 120 83 72 1029 992 307 283 122 501
internal_count=5958 5305 2441 2864 2301 1760 653 2349 2132 1725 213 1512 515 659 352 166 738 1473 1242 1221 1101 120 83 72 1029 992 307 283 122 501
shrinkage=0.1


Tree=13
num_leaves=31
num_cat=0
split_feature=1 5 0 1 17 1 3 17 12 2 1 28 10 0 1 2 24 36 16 17 36 1 1 1 18 1 1 2 20 23
split_gain=153.088 62.3309 36.8932 34.4087 26.9504 25.9506 20.3055 27.8402 19.4651 19.0693 19.1385 16.3105 19.9202 14.8533 14.6829 14.3435 14.5562 14.337 13.9887 13.6978 18.1034 13.5959 12.99 21.6913 16.6279 13.2868 12.8442 12.8261 12.6776 14.4854
threshold=32250000.000000004 1.0000000180025095e-35 1.0000000180025095e-35 24832905.000000004 1.0000000180025095e-35 7950000.0000000009 1.0000000180025095e-35 1.0000000180025095e-35 1.0000000180025095e-35 139.50000000000003 24832905.000000004 1.0000000180025095e-35 1.0000000180025095e-35 1.0000000180025095e-35 18250000.000000004 92.500000000000014 1.0000000180025095e-35 8.5000000000000018 1.0000000180025095e-35 1.0000000180025095e-35 4.5000000000000009 10000002.500000002 7950000.0000000009 15887474.000000002 1.0000000180025095e-35 20000002.500000004 2011960.0000000002 130.50000000000003 1.0000000180025095e-35 1.0000000180025095e-35
decision_type=2 2 2 2 2 2 2 2 2 2 2 2 2 2 2 2 2 2 2 2 2 2 2 2 2 2 2 2 2 2
left_child=1 6 8 5 18 -3 9 13 19 10 21 12 -9 26 -11 17 -17 -6 -5 -2 -21 -1 -14 24 -24 -25 -8 -4 29 -27
right_child=2 3 27 4 15 -7 7 11 -10 14 -12 -13 22 -15 -16 16 -18 -19 -20 20 -22 -23 23 25 -26 28 -28 -29 -30 -31
leaf_value=-0.0096922784388341291 0.02588194638685018 0.0079356766599965722 0.049011030123764829 -0.016542501063376024 -0.014675794198173969 0.075118241780276956 -0.053955894291906038 0.017858068831264975 0.069798598796395314 -0.026396184593439107 -0.037019360930256116 0.0042812466275039289 -0.0041856301389634606 0.022635478547850987 -0.12560044174661508 0.030587878854779441 -0.027330786459303154 0.028618835417872614 0.009517658807631035 0.038051554555101182 -0.02403778551965003 0.070856174253500423 -0.14897399311619147 0.000409315770272823 -0.051497446043150763 -0.071551036563552703 -0.0061269232598362006 0.092598736439127652 0.013015222229684393 -0.02150642608312945
leaf_weight=108 369 114 314 787 246 116 59 61 70 25 459 121 75 176 37 452 48 111 279 67 157 26 35 68 35 181 1161 86 30 85
leaf_count=108 369 114 314 787 246 116 59 61 70 25 459 121 75 176 37 452 48 111 279 67 157 26 35 68 35 181 1161 86 30 85
internal_value=0 -0.00746983 0.0343978 0.00526482 0.000892755 0.0418191 -0.017469 -0.012648 0.0199274 -0.0328298 -0.0273126 -0.0290645 -0.0361431 -0.00452214 -0.0855987 0.014096 0.0250277 -0.00121444 -0.00972188 0.0140404 -0.00546642 0.00593653 -0.0426148 -0.0492557 -0.100236 -0.0394519 -0.00843996 0.0583824 -0.0486092 -0.0555593
internal_weight=0 4895 1063 2153 1923 230 2742 2087 663 655 593 691 570 1396 62 857 500 357 1066 593 224 134 509 434 70 364 1220 400 296 266
internal_count=5958 4895 1063 2153 1923 230 2742 2087 663 655 593 691 570 1396 62 857 500 357 1066 593 224 134 509 434 70 364 1220 400 296 266
shrinkage=0.1


Tree=14
num_leaves=31
num_cat=0
split_feature=1 37 0 12 2 1 8 30 2 37 11 2 2 1 32 27 5 20 36 35 36 37 2 2 16 8 21 3 36 1
split_gain=127.624 40.832 38.2031 40.5955 27.0215 22.2489 21.6202 18.8708 17.9937 19.0819 17.0295 16.895 16.4474 16.0347 14.6769 13.3672 13.0098 12.3041 11.4106 11.3867 10.9596 10.6681 10.346 10.307 9.88514 9.66003 9.38633 9.32485 9.22909 10.8056
threshold=57500000.000000007 -1.366025403784439 1.0000000180025095e-35 1.0000000180025095e-35 114.50000000000001 27220000.000000004 1.0000000180025095e-35 1.0000000180025095e-35 87.500000000000014 1.3660254037844386 1.0000000180025095e-35 14.500000000000002 48.500000000000007 131500000.00000001 1.0000000180025095e-35 1.0000000180025095e-35 1.0000000180025095e-35 1.0000000180025095e-35 2.5000000000000004 1.5000000000000002 8.5000000000000018 0.50000000000000033 38.500000000000007 78.500000000000014 1.0000000180025095e-35 1.0000000180025095e-35 1.0000000180025095e-35 1.0000000180025095e-35 2.5000000000000004 80500000.000000015
decision_type=2 2 2 2 2 2 2 2 2 2 2 2 2 2 2 2 2 2 2 2 2 2 2 2 2 2 2 2 2 2
left_child=1 14 3 4 11 8 15 10 -5 16 25 -3 22 24 26 -4 27 -14 -18 20 -19 -7 -13 -16 28 -6 -1 -10 -2 -30
right_child=13 2 6 5 7 21 -8 -9 9 -11 -12 12 17 -15 23 -17 18 19 -20 -21 -22 -23 -24 -25 -26 -27 -28 -29 29 -31
leaf_value=-0.016579899880004554 0.056973190632249628 0.055220691397272308 0.022119567429016735 -0.016107819606919611 0.012675302822026425 0.02468476944736072 -0.072414905652403827 0.02373752580677313 -0.053122048892287749 -0.0053699424513783799 -0.098543455289757775 -0.03234657062513923 -0.0229251508814531 0.066639506328548939 0.024073754623532298 0.063105634813386519 0.054732795883543219 0.029407507453400358 0.01915240061125641 0.055646836641397773 -0.041960549315384316 0.12228140374645591 -0.12826815947242406 -0.041028906330200003 0.040302351506959121 -0.041179839700606527 0.023591275318037896 0.0060012287604939013 0.01887579038061879 -0.05220147966274194
leaf_weight=758 28 29 269 315 96 21 20 279 36 502 23 22 1251 185 26 113 104 39 676 38 48 24 23 376 350 51 63 103 55 35
leaf_count=758 28 29 269 315 96 21 20 279 36 502 23 22 1251 185 26 113 104 39 676 38 48 24 23 376 350 51 63 103 55 35
internal_value=0 -0.00513487 -0.000332737 -0.00353017 -0.0137017 0.00731523 0.0289373 0.00773481 0.00551572 0.0103091 -0.0185285 -0.0203396 -0.0218816 0.0417159 -0.0211629 0.0342437 0.0188737 -0.019936 0.0238965 0.00997893 -0.00996797 0.0767363 -0.0813732 -0.0368183 0.0318637 -0.00600913 -0.0134973 -0.00931127 0.00683361 -0.00876537
internal_weight=0 5305 4082 3680 1899 1781 402 449 1736 1421 170 1450 1421 653 1223 382 919 1376 780 125 87 45 45 402 468 147 821 139 118 90
internal_count=5958 5305 4082 3680 1899 1781 402 449 1736 1421 170 1450 1421 653 1223 382 919 1376 780 125 87 45 45 402 468 147 821 139 118 90
shrinkage=0.1


Tree=15
num_leaves=31
num_cat=0
split_feature=1 5 0 1 12 1 17 1 18 16 35 2 22 2 16 2 2 37 2 17 13 2 27 37 23 27 29 19 37 37
split_gain=105.258 45.4035 28.1716 28.0143 20.6517 20.6315 20.5994 16.4074 15.6756 12.946 13.6606 12.5863 11.6971 13.2378 11.7146 10.8444 10.6986 12.7775 10.6805 10.784 11.9904 10.5655 10.4163 17.8994 10.4084 10.5981 10.3008 23.0431 15.6727 21.7352
threshold=27220000.000000004 1.0000000180025095e-35 1.0000000180025095e-35 24832905.000000004 1.0000000180025095e-35 4850000.0000000009 1.0000000180025095e-35 24250000.000000004 1.0000000180025095e-35 1.0000000180025095e-35 1.0000000180025095e-35 148.50000000000003 1.0000000180025095e-35 96.500000000000014 1.0000000180025095e-35 109.50000000000001 100.50000000000001 1.0000000180025095e-35 154.50000000000003 1.0000000180025095e-35 1.0000000180025095e-35 123.50000000000001 1.0000000180025095e-35 0.50000000000000033 1.0000000180025095e-35 1.0000000180025095e-35 1.0000000180025095e-35 1.0000000180025095e-35 1.3660254037844386 0.50000000000000033
decision_type=2 2 2 2 2 2 2 2 2 2 2 2 2 2 2 2 2 2 2 2 2 2 2 2 2 2 2 2 2 2
left_child=1 7 4 5 9 -3 -5 11 12 10 -2 15 16 14 -14 26 -9 -18 19 20 -10 -4 23 -6 25 -21 27 28 29 -1
right_child=2 3 21 6 22 -7 -8 8 18 -11 -12 -13 13 -15 -16 -17 17 -19 -20 24 -22 -23 -24 -25 -26 -27 -28 -29 -30 -31
leaf_value=-0.016201115359461268 -0.0261490055904838 -0.0097444123171492314 0.03615374671046933 -0.0092470452694203946 -0.014265063038516429 0.056172654944603433 0.011636698867762736 -0.011102540085230731 -0.018632936588396678 0.019883283932856655 0.019968338932332425 -0.073257001185858692 -0.028850408641916986 -0.06438638594125709 0.038765206897412155 0.011439597802955382 -0.0059639791300629868 0.058860602490603924 -0.10341483853757381 -0.077795507651835419 -0.064250396861461931 0.069927291052221369 0.1127715744768028 0.097105453128891961 -0.01381509187713004 -0.008118473921247104 0.0094480693525536945 -0.10488865696664514 -0.047681092296374371 0.042238449873287738
leaf_weight=297 163 67 300 1063 31 163 850 363 578 439 106 27 104 75 34 311 68 55 20 114 64 134 27 27 57 27 181 29 103 81
leaf_count=297 163 67 300 1063 31 163 850 363 578 439 106 27 104 75 34 311 68 55 20 114 64 134 27 27 57 27 181 29 103 81
internal_value=0 -0.00676896 0.0260994 0.00399666 0.0148898 0.0369707 3.21928e-05 -0.0156835 -0.0221522 0.00929819 -0.00797637 -0.00588286 -0.0110298 -0.03057 -0.0121915 -0.00406739 -0.00246592 0.0230226 -0.0311924 -0.0294729 -0.0231805 0.0465815 0.0614643 0.0375798 -0.0498755 -0.0644531 -0.0110467 -0.0183203 -0.013101 -0.00367835
internal_weight=0 4731 1227 2143 793 230 1913 2588 1559 708 269 1029 699 213 138 1002 486 123 860 840 642 434 85 58 198 141 691 510 481 378
internal_count=5958 4731 1227 2143 793 230 1913 2588 1559 708 269 1029 699 213 138 1002 486 123 860 840 642 434 85 58 198 141 691 510 481 378
shrinkage=0.1


Tree=16
num_leaves=31
num_cat=0
split_feature=1 37 29 0 2 27 36 2 20 16 1 2 1 2 2 18 17 11 37 2 18 23 36 37 36 36 32 8 2 2
split_gain=87.557 32.8762 29.4455 28.5281 26.561 37.9497 18.8957 20.4403 16.923 14.4651 14.2242 14.4336 15.9576 17.1486 22.0502 14.0068 13.8125 14.8386 14.7199 13.6127 17.1138 21.884 15.8747 13.4614 17.885 12.5323 11.4794 10.7239 10.111 16.2766
threshold=72500000.000000015 -1.366025403784439 1.0000000180025095e-35 1.0000000180025095e-35 107.50000000000001 1.0000000180025095e-35 2.5000000000000004 82.500000000000014 1.0000000180025095e-35 1.0000000180025095e-35 29500000.000000004 140.50000000000003 24832905.000000004 125.50000000000001 120.50000000000001 1.0000000180025095e-35 1.0000000180025095e-35 1.0000000180025095e-35 -1 77.500000000000014 1.0000000180025095e-35 1.0000000180025095e-35 3.5000000000000004 1.3660254037844386 2.5000000000000004 3.5000000000000004 1.0000000180025095e-35 1.0000000180025095e-35 114.50000000000001 110.50000000000001
decision_type=2 2 2 2 2 2 2 2 2 2 2 2 2 2 2 2 2 2 2 2 2 2 2 2 2 2 2 2 2 2
left_child=1 26 3 4 5 8 -5 -8 16 -2 11 12 -4 14 -14 -9 -3 18 -18 22 -21 -22 -7 24 -20 28 -1 -13 29 -6
right_child=9 2 10 6 25 19 7 15 -10 -11 -12 27 13 -15 -16 -17 17 -19 23 20 21 -23 -24 -25 -26 -27 -28 -29 -30 -31
leaf_value=-0.011142019362461118 0.0037309810754725305 -0.013861493448892684 0.0086334350548868035 0.083619261767354708 0.050592354250450937 -0.10051193665713072 -0.061905092180061794 0.043045447150316954 0.018979742312196481 0.048733031574431297 0.023218718820606315 -0.020578761398792268 -0.019897360783876963 0.037391480278223754 -0.11180248020423784 -0.018849047478805815 -0.098994473333357647 -0.12015122390635635 0.059296940577526894 0.023482174269024242 -0.011890391148845939 0.040315140691595253 -0.0012436993971314968 -0.059760839698304029 -0.026957035772040613 0.0086321719025702435 -0.031548766700440149 -0.11416235689073802 0.048170134888884303 -0.037445992284587455
leaf_weight=833 87 365 264 62 42 24 26 195 92 399 105 24 788 50 27 45 33 23 30 528 425 99 49 84 121 467 412 25 192 42
leaf_count=833 87 365 264 62 42 24 26 195 92 399 105 24 788 50 27 45 33 23 30 528 425 99 49 84 121 467 412 25 192 42
internal_value=0 -0.00361277 0.000593877 0.0061037 0.00261803 -0.00372839 0.033904 0.0223163 -0.021185 0.0406771 -0.0120491 -0.0151926 -0.0128866 -0.0194546 -0.0229421 0.0314402 -0.0268179 -0.0430691 -0.0364538 0.00787835 0.010776 -0.00202713 -0.0338798 -0.0276715 -0.00982048 0.0186165 -0.0178951 -0.0683255 0.0355102 0.00657318
internal_weight=0 5472 4227 2944 2616 1873 328 266 748 486 1283 1178 1129 865 815 240 656 291 268 1125 1052 524 73 235 151 743 1245 49 276 84
internal_count=5958 5472 4227 2944 2616 1873 328 266 748 486 1283 1178 1129 865 815 240 656 291 268 1125 1052 524 73 235 151 743 1245 49 276 84
shrinkage=0.1


Tree=17
num_leaves=31
num_cat=0
split_feature=1 37 29 0 2 27 36 2 20 13 16 1 2 1 2 2 18 17 11 37 36 2 35 36 2 18 23 36 1 32
split_gain=70.9212 26.6297 23.8508 23.1078 21.5144 30.7393 15.3055 16.5567 13.7076 13.356 11.7167 11.5216 11.6912 12.9257 13.9767 12.6901 11.3455 11.1881 12.0193 11.9231 12.174 13.3367 14.3168 10.1512 9.99593 13.404 14.7633 12.8585 9.87003 9.29834
threshold=72500000.000000015 -1.366025403784439 1.0000000180025095e-35 1.0000000180025095e-35 107.50000000000001 1.0000000180025095e-35 2.5000000000000004 82.500000000000014 1.0000000180025095e-35 1.0000000180025095e-35 1.0000000180025095e-35 29500000.000000004 140.50000000000003 24832905.000000004 127.50000000000001 120.50000000000001 1.0000000180025095e-35 1.0000000180025095e-35 1.0000000180025095e-35 -1 11.500000000000002 102.50000000000001 1.5000000000000002 3.5000000000000004 77.500000000000014 1.0000000180025095e-35 1.0000000180025095e-35 3.5000000000000004 14000010.000000002 1.0000000180025095e-35
decision_type=2 2 2 2 2 2 2 2 2 2 2 2 2 2 2 2 2 2 2 2 2 2 2 2 2 2 2 2 2 2
left_child=1 29 3 4 5 8 -5 -8 17 24 -2 12 13 28 15 -15 -9 -3 19 -19 21 22 -21 -6 27 -26 -27 -7 -4 -1
right_child=10 2 11 6 23 9 7 16 -10 -11 -12 -13 -14 14 -16 -17 -18 18 -20 20 -22 -23 -24 -25 25 26 -28 -29 -30 -31
leaf_value=-0.010027817429165219 0.0033578828705110768 -0.012475344265814335 -0.0027160996925279807 0.075257335326844643 0.03195917326568936 -0.090460744441952567 -0.055714581412478141 0.038740902529217497 0.017081768019124866 0.071818194586423134 0.043859728252635406 0.020896847485675524 -0.061492942821006397 -0.017907624889926293 0.037399429980326783 -0.081204804035863193 -0.016964143253862859 -0.089095027016645123 -0.1081361006985864 -0.018606632616212437 -0.0880773914081079 -0.069415367862735042 0.055683572543784976 0.0077689547092719621 0.019147387570376661 -0.011839510851438759 0.032456905500072505 -0.0011193300939488168 0.043423142275617777 -0.028393890054159557
leaf_weight=833 87 365 204 62 276 24 26 195 92 31 399 105 49 788 44 33 45 33 23 137 27 39 32 467 516 413 92 49 60 412
leaf_count=833 87 365 204 62 276 24 26 195 92 31 399 105 49 788 44 33 45 33 23 137 27 39 32 467 516 413 92 49 60 412
internal_value=0 -0.00325149 0.000534489 0.00549333 0.00235623 -0.00335555 0.0305136 0.0200846 -0.0190665 0.00709051 0.0366094 -0.0108442 -0.0136734 -0.011598 -0.0175091 -0.0204518 0.0282962 -0.0241361 -0.0387622 -0.0328084 -0.0249044 -0.016704 -0.00453985 0.0167548 0.00525637 0.00781231 -0.00376967 -0.0304918 0.00777009 -0.0161056
internal_weight=0 5472 4227 2944 2616 1873 328 266 748 1125 486 1283 1178 1129 865 821 240 656 291 268 235 208 169 743 1094 1021 505 73 264 1245
internal_count=5958 5472 4227 2944 2616 1873 328 266 748 1125 486 1283 1178 1129 865 821 240 656 291 268 235 208 169 743 1094 1021 505 73 264 1245
shrinkage=0.1


Tree=18
num_leaves=31
num_cat=0
split_feature=1 5 5 1 1 1 17 2 2 37 15 37 37 2 2 2 20 29 16 2 2 17 17 23 37 37 2 23 2 2
split_gain=59.062 29.2214 29.0728 21.2044 20.6898 17.1036 12.6768 11.8628 24.6323 21.4714 11.4918 11.046 20.5906 16.1087 10.9764 10.4086 9.45008 14.0717 8.64876 8.36273 8.27597 9.04718 8.24037 10.1883 7.87903 7.63377 10.072 7.61114 8.43016 21.4025
threshold=25454694.500000004 1.0000000180025095e-35 1.0000000180025095e-35 24832905.000000004 101000000.00000001 7950000.0000000009 1.0000000180025095e-35 90.500000000000014 94.500000000000014 0.50000000000000033 1.0000000180025095e-35 0.50000000000000033 1.3660254037844386 82.500000000000014 38.500000000000007 153.50000000000003 1.0000000180025095e-35 1.0000000180025095e-35 1.0000000180025095e-35 110.50000000000001 112.50000000000001 1.0000000180025095e-35 1.0000000180025095e-35 1.0000000180025095e-35 -1.366025403784439 -1.366025403784439 102.50000000000001 1.0000000180025095e-35 62.500000000000007 48.500000000000007
decision_type=2 2 2 2 2 2 2 2 2 2 2 2 2 2 2 2 2 2 2 2 2 2 2 2 2 2 2 2 2 2
left_child=2 4 10 5 7 19 18 -2 9 -9 11 14 13 -13 -1 -12 -16 -18 27 -4 21 -14 -10 -24 -25 -20 -27 28 29 -5
right_child=1 -3 3 6 -6 -7 -8 8 22 -11 15 12 20 -15 16 -17 17 -19 25 -21 -22 -23 23 24 -26 26 -28 -29 -30 -31
leaf_value=0.039441423935608733 0.042315713014891926 0.13089935905907465 -0.0078746835354398543 -0.02573322583317619 0.040834482841875769 0.059159865009283309 0.0091038001134534762 -0.10612755664757322 0.018836324751983716 0.0081568851045543157 -0.021903346340106211 -0.044874971548971888 -0.0082478767960091227 0.027988518949545235 -0.019644472435148261 -0.085531249725156355 0.041195713704308641 -0.029773723113597658 -0.025027495110407472 0.063336390256881717 0.012315699618664527 -0.040463328257875339 -0.016520439298528304 -0.028186159742915114 0.038514049307673014 -0.0018132922414224595 0.041564753315026834 0.015433939402316547 -0.020224084356248222 0.076487389161731256
leaf_weight=36 102 23 94 54 284 116 848 35 503 31 538 34 253 282 1035 27 65 49 56 20 105 133 183 23 77 128 92 86 613 33
leaf_count=36 102 23 94 54 284 116 848 35 503 31 538 34 253 282 1035 27 65 49 56 20 105 133 183 23 77 128 92 86 613 33
internal_value=0 0.0192157 -0.00515883 0.00344104 0.0171408 0.0321263 -1.32024e-05 0.0100874 0.00622903 -0.0524485 -0.0123562 -0.00878589 0.000237703 0.0201488 -0.0149311 -0.024944 -0.0166347 0.0106913 -0.00729307 0.00461849 -0.0125768 -0.019348 0.0111561 -0.00249449 0.023173 0.00793593 0.0163266 -0.0126407 -0.0160898 0.0130401
internal_weight=0 1261 4697 2140 1238 230 1910 954 852 66 2557 1992 807 316 1185 565 1149 114 1062 114 491 386 786 283 100 276 220 786 700 87
internal_count=5958 1261 4697 2140 1238 230 1910 954 852 66 2557 1992 807 316 1185 565 1149 114 1062 114 491 386 786 283 100 276 220 786 700 87
shrinkage=0.1


Tree=19
num_leaves=31
num_cat=0
split_feature=0 1 5 12 1 2 18 23 17 24 27 10 2 19 2 22 2 1 1 30 33 31 32 18 2 36 22 2 35 17
split_gain=51.8532 17.8923 23.5224 14.9903 14.0563 13.4371 12.6154 20.4216 10.8262 13.3368 10.3121 14.1366 23.9074 20.164 22.279 11.0549 10.49 9.59417 12.4573 9.37145 9.18972 11.4994 11.3864 9.18261 9.04533 8.88091 8.76482 9.1916 9.11895 8.54147
threshold=1.0000000180025095e-35 25050000.000000004 1.0000000180025095e-35 1.0000000180025095e-35 70100000.000000015 108.50000000000001 1.0000000180025095e-35 1.0000000180025095e-35 1.0000000180025095e-35 1.0000000180025095e-35 1.0000000180025095e-35 1.0000000180025095e-35 100.50000000000001 1.0000000180025095e-35 93.500000000000014 1.0000000180025095e-35 122.50000000000001 23500000.000000004 18250000.000000004 1.0000000180025095e-35 1.0000000180025095e-35 1.0000000180025095e-35 1.0000000180025095e-35 1.0000000180025095e-35 84.500000000000014 3.5000000000000004 1.0000000180025095e-35 96.500000000000014 2.5000000000000004 1.0000000180025095e-35
decision_type=2 2 2 2 2 2 2 2 2 2 2 2 2 2 2 2 2 2 2 2 2 2 2 2 2 2 2 2 2 2
left_child=1 2 17 -3 10 6 8 24 20 -10 11 12 -2 16 -15 -12 -13 18 -1 -5 21 -4 -22 26 -8 -20 29 28 -28 -19
right_child=4 3 5 19 -6 -7 7 -9 9 -11 15 13 -14 14 -16 -17 -18 23 25 -21 22 -23 -24 -25 -26 -27 27 -29 -30 -31
leaf_value=-0.010200956345847044 0.018477782178105733 0.0050475179156617951 -0.0033371370911177362 0.10689354169936408 0.042168737840399428 0.019478157178143111 -0.050517975379767315 0.026521723888969669 0.019834771467591352 -0.03488251461970563 0.048449320389330391 0.020208971713900681 -0.10840509619425845 0.0079448563264722522 -0.10742000745466124 -0.029963971009211884 0.09205997537144206 0.013095530707423933 0.072093373408605319 0.030468739051481383 -0.095665861911733041 0.072215073894370693 -0.015498017315026169 -0.025254327805592156 -0.014086492928915029 0.0095128901678925536 -0.026875575655924806 -0.056109402243814922 0.034670490533409808 -0.016036665203098797
leaf_weight=707 33 735 239 21 265 343 77 120 490 49 125 266 27 47 26 21 22 214 29 68 22 22 91 822 593 104 89 68 33 190
leaf_count=707 33 735 239 21 265 343 77 120 490 49 125 266 27 47 26 21 22 214 29 68 22 22 91 822 593 104 89 68 33 190
internal_value=0 -0.00375846 -0.00634412 0.00974098 0.0231561 0.00142054 -0.00221643 -0.0114691 0.00578968 0.0148605 0.0142701 0.00632832 -0.0386195 0.0137989 -0.033144 0.0371707 0.0256976 -0.013386 -0.00491908 0.0485016 -0.00728292 0.00303125 -0.0311059 -0.0184088 -0.0182734 0.0231583 -0.00893563 -0.0266486 -0.0102279 -0.000605254
internal_weight=0 5126 4302 824 832 2046 1703 790 913 539 567 421 60 361 73 146 288 2256 840 89 374 261 113 1416 670 133 594 190 122 404
internal_count=5958 5126 4302 824 832 2046 1703 790 913 539 567 421 60 361 73 146 288 2256 840 89 374 261 113 1416 670 133 594 190 122 404
shrinkage=0.1


Tree=20
num_leaves=31
num_cat=0
split_feature=0 16 27 2 37 36 2 1 2 37 2 32 22 23 17 2 36 18 20 18 2 2 21 18 27 10 2 19 2 22
split_gain=42.0011 16.6667 15.3429 16.2542 13.0406 11.8327 16.1958 11.3856 11.0076 10.9129 11.8084 10.7658 13.7568 10.2451 10.2205 14.1791 19.4519 12.3211 12.0072 12.0057 10.5715 9.94754 9.35713 8.71537 8.35281 11.4506 19.5278 16.3328 18.046 8.95449
threshold=1.0000000180025095e-35 1.0000000180025095e-35 1.0000000180025095e-35 90.500000000000014 1.0000000180025095e-35 2.5000000000000004 114.50000000000001 70100000.000000015 104.50000000000001 1.3660254037844386 88.500000000000014 1.0000000180025095e-35 1.0000000180025095e-35 1.0000000180025095e-35 1.0000000180025095e-35 102.50000000000001 11.500000000000002 1.0000000180025095e-35 1.0000000180025095e-35 1.0000000180025095e-35 104.50000000000001 23.500000000000004 1.0000000180025095e-35 1.0000000180025095e-35 1.0000000180025095e-35 1.0000000180025095e-35 98.500000000000014 1.0000000180025095e-35 93.500000000000014 1.0000000180025095e-35
decision_type=2 2 2 2 2 2 2 2 2 2 2 2 2 2 2 2 2 2 2 2 2 2 2 2 2 2 2 2 2 2
left_child=1 2 5 21 13 6 8 24 11 -6 -11 12 -1 23 17 16 19 20 -19 -16 -5 -4 -12 -3 25 26 -2 -27 -29 -26
right_child=7 4 3 14 9 -7 -8 -9 -10 10 22 -13 -14 -15 15 -17 -18 18 -20 -21 -22 -23 -24 -25 29 27 -28 28 -30 -31
leaf_value=0.0048246446710695093 0.022291778549551965 0.0089292671125589928 0.054417778663337239 -0.0098674337534854824 0.024610711953603804 -0.017893636487820681 0.043904193034273037 0.037951864178802051 -0.057838006489551987 -0.052794066467079882 0.011469627128354677 0.047263424939069994 -0.069748174212872979 -0.045124583191385396 0.025237151550427207 0.038294253686090581 -0.071405740755219618 0.0054887200523473147 -0.065391507137566807 -0.013741291589217214 -0.084069648245349529 -0.017396594715320568 -0.049609649726362143 -0.012774411611414205 0.043604388841241598 0.023127831121706147 -0.091806902574996158 0.0071503715431119538 -0.096678007995853063 -0.026967574052867441
leaf_weight=109 30 399 20 48 434 1410 76 265 39 36 353 39 32 57 221 185 31 543 25 123 32 542 27 345 125 288 30 47 26 21
leaf_count=109 30 399 20 48 434 1410 76 265 39 36 353 39 32 57 221 185 31 543 25 123 32 542 27 345 125 288 30 47 26 21
internal_value=0 -0.00338261 -0.00731297 -0.000791405 0.00488994 -0.0140832 0.00412968 0.0208405 -0.00967335 0.0135174 0.00194407 0.000762324 -0.0120997 -0.00426529 0.00574488 0.0156394 0.00446308 -0.00280598 0.00236899 0.0113001 -0.0395483 -0.0148409 0.00712978 -0.00113494 0.0128431 0.00569549 -0.0347576 0.012419 -0.0298296 0.0334536
internal_weight=0 5126 3475 1770 1651 1705 295 832 219 850 416 180 141 801 1208 560 375 648 568 344 80 562 380 744 567 421 60 361 73 146
internal_count=5958 5126 3475 1770 1651 1705 295 832 219 850 416 180 141 801 1208 560 375 648 568 344 80 562 380 744 567 421 60 361 73 146
shrinkage=0.1


Tree=21
num_leaves=31
num_cat=0
split_feature=1 37 12 37 2 36 30 2 2 10 0 2 37 29 10 18 2 2 32 13 2 9 23 18 36 18 2 15 10 22
split_gain=34.2314 17.123 14.4091 12.192 17.3966 15.1716 12.4259 10.239 16.9067 11.8009 10.2676 12.2006 10.6146 11.8989 10.0722 9.39771 9.1128 8.40851 8.09689 8.00291 7.99916 7.55314 7.27221 13.564 8.57085 6.81029 11.0321 9.18122 7.37599 7.30257
threshold=57500000.000000007 -1.366025403784439 1.0000000180025095e-35 1.3660254037844386 87.500000000000014 2.5000000000000004 1.0000000180025095e-35 14.500000000000002 48.500000000000007 1.0000000180025095e-35 1.0000000180025095e-35 114.50000000000001 0.50000000000000033 1.0000000180025095e-35 1.0000000180025095e-35 1.0000000180025095e-35 129.50000000000003 68.500000000000014 1.0000000180025095e-35 1.0000000180025095e-35 78.500000000000014 1.0000000180025095e-35 1.0000000180025095e-35 1.0000000180025095e-35 7.5000000000000009 1.0000000180025095e-35 87.500000000000014 1.0000000180025095e-35 1.0000000180025095e-35 1.0000000180025095e-35
decision_type=2 2 2 2 2 2 2 2 2 2 2 2 2 2 2 2 2 2 2 2 2 2 2 2 2 2 2 2 2 2
left_child=1 18 7 4 -4 -6 15 -3 9 -9 11 17 13 -13 -12 -7 -2 -10 -1 25 -20 -22 23 -16 -25 27 -27 28 29 -5
right_child=16 2 3 19 5 6 -8 8 10 -11 14 12 -14 -15 22 -17 -18 -19 20 -21 21 -23 -24 24 -26 26 -28 -29 -30 -31
leaf_value=-0.0073451135578701714 0.014596278912110128 0.053976114890698736 -0.013488499987126847 0.00083019468660020966 0.047785068347395682 0.030344497834458306 -0.030375210119441887 -0.019613261024157207 0.041310668377013048 -0.11827808428894392 -0.035241134092211725 0.010817986955882701 0.020612762739793178 -0.038876397062129059 0.025788590296227588 0.0080429065029185079 0.041516858611036753 -0.013112756409048944 0.028976713550778539 0.046388902623827263 -0.03231828607334275 0.022580534606068223 0.066189712832371392 0.0042405084745648003 -0.084397035082802177 -0.064253673671434322 -0.0094045161408981299 0.062459704445675016 0.045966158211231234 -0.046861624259403663
leaf_weight=821 483 29 209 207 148 303 61 27 29 22 38 113 252 84 183 502 170 1347 26 30 349 27 30 24 20 42 289 25 30 38
leaf_count=821 483 29 209 207 148 303 61 27 29 22 38 113 252 84 183 502 170 1347 26 30 349 27 30 24 20 42 289 25 30 38
internal_value=0 -0.00265935 0.000450388 0.00686774 0.0127818 0.0181965 0.0131398 -0.0050502 -0.00583939 -0.0639118 -0.00449716 -0.00729515 0.00701833 -0.0103715 0.0128124 0.0164372 0.0216047 -0.0119658 -0.0130387 -0.00407459 -0.0246667 -0.0283761 0.0199176 0.0138024 -0.0360493 -0.00647381 -0.0163642 0.00443862 -0.000836024 -0.0065669
internal_weight=0 5305 4082 1884 1223 1014 866 2198 2169 49 2120 1825 449 197 295 805 653 1376 1223 661 402 376 257 227 44 631 331 300 275 245
internal_count=5958 5305 4082 1884 1223 1014 866 2198 2169 49 2120 1825 449 197 295 805 653 1376 1223 661 402 376 257 227 44 631 331 300 275 245
shrinkage=0.1


Tree=22
num_leaves=31
num_cat=0
split_feature=0 16 23 30 2 2 18 17 36 2 20 2 37 11 20 2 2 2 19 37 37 37 23 36 19 24 27 2 1 1
split_gain=29.8574 12.8148 12.6183 16.0849 24.4647 14.5488 10.7959 11.2976 11.0787 10.3805 10.3738 9.49948 9.08902 8.51438 8.33139 10.6181 12.9895 18.4602 12.8983 8.34163 8.85364 8.24725 9.10092 8.82775 8.23473 12.7339 7.67535 7.57723 14.9653 19.2133
threshold=1.0000000180025095e-35 1.0000000180025095e-35 1.0000000180025095e-35 1.0000000180025095e-35 124.50000000000001 136.50000000000003 1.0000000180025095e-35 1.0000000180025095e-35 11.500000000000002 91.500000000000014 1.0000000180025095e-35 82.500000000000014 0.50000000000000033 1.0000000180025095e-35 1.0000000180025095e-35 79.500000000000014 46.500000000000007 35.500000000000007 1.0000000180025095e-35 -1.366025403784439 -1 0.50000000000000033 1.0000000180025095e-35 6.5000000000000009 1.0000000180025095e-35 1.0000000180025095e-35 1.0000000180025095e-35 90.500000000000014 22250000.000000004 13550000.000000002
decision_type=2 2 2 2 2 2 2 2 2 2 2 2 2 2 2 2 2 2 2 2 2 2 2 2 2 2 2 2 2 2
left_child=1 2 3 6 -5 -4 7 8 14 -8 21 12 -2 -11 15 16 17 -1 26 -17 -21 22 -3 -24 25 -9 -18 -13 29 -29
right_child=11 10 5 4 -6 -7 9 24 -10 13 -12 27 -14 -15 -16 19 18 -19 -20 20 -22 -23 23 -25 -26 -27 -28 28 -30 -31
leaf_value=0.011367538373451681 -0.062322631797620237 -0.0027878674581040476 0.0086461590147104157 -0.029757203150762038 0.030157725220280037 -0.056560346320879445 -0.029391971435829362 0.020338080244554569 0.047801206074655059 -0.0036721346852276837 0.021610081038892167 0.04462390957134111 0.015139163827354259 -0.043083582522931624 0.049809294771403077 -0.05817306785278821 0.092678417601893034 -0.093255426240368533 -0.02790265460498631 0.041902122189375487 -0.025681524602067803 0.0099092574475329841 -0.013058936072362437 -0.091951442477495773 -0.034370419468198507 -0.041434378673632942 0.01643518319596415 0.014344810008501206 0.024281171873948414 -0.063848091165224705
leaf_weight=48 28 731 691 593 77 36 259 457 32 773 289 112 33 59 20 70 31 26 24 22 163 571 37 23 35 36 23 91 520 48
leaf_count=48 28 731 691 593 77 36 259 457 32 773 289 112 33 59 20 70 31 26 24 22 163 571 37 23 35 36 23 91 520 48
internal_value=0 -0.00285199 -0.00629837 -0.0093978 -0.0228715 0.00541723 -0.00505355 0.00252456 -0.00895023 -0.0119093 0.00440188 0.0175713 -0.0204171 -0.00646694 -0.0132033 -0.0162997 0.0046209 -0.0253919 0.0330946 -0.02877 -0.0176446 0.000750507 -0.00586093 -0.0433011 0.0124998 0.0158273 0.0602044 0.0205769 0.01649 -0.0126571
internal_weight=0 5126 3475 2748 670 727 2078 987 459 1091 1651 832 61 832 427 407 152 74 78 255 185 1362 791 60 528 493 54 771 659 139
internal_count=5958 5126 3475 2748 670 727 2078 987 459 1091 1651 832 61 832 427 407 152 74 78 255 185 1362 791 60 528 493 54 771 659 139
shrinkage=0.1


Tree=23
num_leaves=31
num_cat=0
split_feature=1 5 5 1 1 1 28 29 13 15 35 37 1 2 2 2 17 15 23 18 16 1 37 37 2 2 6 36 18 2
split_gain=24.3013 19.5254 13.6724 15.8369 11.9872 10.608 9.43965 9.32386 18.087 8.95924 8.8997 9.80862 8.47631 8.49559 9.64124 7.48563 7.07916 8.12383 7.76213 13.6765 11.3784 14.0188 6.95077 15.7107 11.396 8.19941 7.13883 7.37754 6.86877 10.7188
threshold=25454694.500000004 1.0000000180025095e-35 1.0000000180025095e-35 24832905.000000004 7950000.0000000009 192500000.00000003 1.0000000180025095e-35 1.0000000180025095e-35 1.0000000180025095e-35 1.0000000180025095e-35 1.5000000000000002 1.0000000180025095e-35 103500000.00000001 90.500000000000014 95.500000000000014 153.50000000000003 1.0000000180025095e-35 1.0000000180025095e-35 1.0000000180025095e-35 1.0000000180025095e-35 1.0000000180025095e-35 55500000.000000007 0.50000000000000033 1.3660254037844386 82.500000000000014 38.500000000000007 1.0000000180025095e-35 5.5000000000000009 1.0000000180025095e-35 90.500000000000014
decision_type=2 2 2 2 2 2 2 2 2 2 2 2 2 2 2 2 2 2 2 2 2 2 2 2 2 2 2 2 2 2
left_child=2 5 9 4 -4 10 7 8 -5 22 16 12 13 -12 -15 -11 -2 18 19 20 21 -18 25 24 -24 -1 27 28 -27 -30
right_child=1 -3 3 6 -6 -7 -8 -9 -10 15 11 -13 -14 14 -16 -17 17 -19 -20 -21 -22 -23 23 -25 -26 26 -28 -29 29 -31
leaf_value=0.03702671774436668 0.0095585161255623552 0.10361920374891032 0.0043498694433462028 0.00081031080488447836 0.050010380602505955 0.050275884321308695 0.064728710021484989 -0.013904030851342461 0.068189848764095368 -0.016780810249574677 0.050818016821587535 0.039872697444818327 0.04329640803237756 -0.060019475558111747 0.00153569267344543 -0.070739982635886586 -0.090473780881714178 0.032733705315714408 0.014778011124896802 -0.10496531143784522 0.0054447194933891297 -0.0039982147122684273 -0.035233160579467522 -0.0091278183042563018 0.026051954264630375 0.01419075899929912 -0.051906665776013619 -0.017192584483819266 -0.05977386649894087 -0.0029694850721033151
leaf_weight=36 475 23 114 1407 116 64 22 440 41 538 27 158 54 31 142 27 37 38 59 20 95 38 34 491 282 189 42 616 38 264
leaf_count=36 475 23 114 1407 116 64 22 440 41 538 27 158 54 31 142 27 37 38 59 20 95 38 34 491 282 189 42 616 38 264
internal_value=0 0.0123259 -0.00330911 0.00258843 0.0273786 0.0106298 -0.000396781 -0.00115566 0.00271816 -0.00824487 0.00846849 0.0203093 0.00813999 -0.00135224 -0.00949442 -0.0193594 0.00206635 -0.0103336 -0.0169061 -0.0267448 -0.0175424 -0.0466595 -0.00509241 0.00206563 0.019458 -0.00996713 -0.0114395 -0.00990418 -0.00076028 -0.0101171
internal_weight=0 1261 4697 2140 230 1238 1910 1888 1448 2557 1174 412 254 200 173 565 762 287 249 190 170 75 1992 807 316 1185 1149 1107 491 302
internal_count=5958 1261 4697 2140 230 1238 1910 1888 1448 2557 1174 412 254 200 173 565 762 287 249 190 170 75 1992 807 316 1185 1149 1107 491 302
shrinkage=0.1


Tree=24
num_leaves=31
num_cat=0
split_feature=0 37 2 8 2 37 2 2 2 35 37 2 20 12 2 27 8 2 1 1 37 37 37 36 1 17 4 2 36 18
split_gain=21.8173 10.2433 13.2428 7.85855 7.24818 7.43697 7.19569 17.6138 20.6008 12.0604 10.7219 8.56515 7.8019 7.93677 7.65413 7.01251 6.70968 6.47236 11.0234 15.4522 10.5565 8.06536 19.5566 7.30728 14.8117 6.2762 6.1127 7.33361 7.78709 7.15911
threshold=1.0000000180025095e-35 -1.366025403784439 101.33683587390856 1.0000000180025095e-35 82.500000000000014 0.50000000000000033 14.500000000000002 48.500000000000007 59.000000000000007 1.0000000180025095e-35 1.3660254037844386 38.500000000000007 1.0000000180025095e-35 1.0000000180025095e-35 77.500000000000014 1.0000000180025095e-35 1.0000000180025095e-35 90.500000000000014 22250000.000000004 13550000.000000002 0.50000000000000033 0.50000000000000033 -0.49999999999999989 4.5000000000000009 63300000.000000007 1.0000000180025095e-35 1.0000000180025095e-35 123.50000000000001 2.5000000000000004 1.0000000180025095e-35
decision_type=2 2 2 2 2 2 2 2 2 2 2 2 2 2 2 2 2 2 2 2 2 2 2 2 2 2 2 2 2 2
left_child=1 16 6 26 5 -2 -3 9 -9 11 12 -8 13 15 -15 -10 -1 -6 19 -19 -21 22 23 -20 -25 -16 27 29 -29 -4
right_child=4 2 3 -5 17 -7 7 8 10 -11 -12 -13 -14 14 25 -17 -18 18 21 20 -22 -23 -24 24 -26 -27 -28 28 -30 -31
leaf_value=-0.0088993774841041005 -0.056068977520668084 0.036576578589156271 0.015172943345525096 -0.019777045378630814 0.039870438606677848 0.014000207462319822 -0.039959794469177724 0.073823395416592108 -0.0069000138992556456 0.0095186144765466458 -0.016300272445820045 -0.12359516680240633 0.024122233484903801 -0.05074627459301459 -0.0033829974937298808 -0.037761542756624265 -0.042713139928697103 0.013068044697865844 0.056917844423834164 -0.0081622922226138733 -0.10203637638129295 0.035747373072457227 -0.042589515122470632 -0.016152896571924893 0.037948174784450159 0.016904231489430096 -0.028596049166387985 0.045153687238617214 0.012604216392291393 -0.0003163574486101227
leaf_weight=1097 28 40 461 110 112 33 24 33 479 20 655 25 116 24 303 87 62 91 49 23 25 209 57 91 114 307 45 98 294 846
leaf_count=1097 28 40 461 110 112 33 24 33 479 20 655 25 116 24 303 87 62 91 49 23 25 209 57 91 114 307 45 98 294 846
internal_value=0 -0.00243794 -2.16876e-05 0.00614644 0.0150203 -0.0181627 -0.00543376 -0.00624438 -0.00453396 -0.0559209 -0.00584588 -0.0826309 -0.000642509 -0.00303643 0.0046477 -0.0116437 -0.0107082 0.0176456 0.0138684 -0.0111471 -0.057055 0.0205553 0.0103458 0.022225 0.0139326 0.00682713 0.00778152 0.00874502 0.0207416 0.00514697
internal_weight=0 5126 3967 1854 832 61 2113 2073 2004 69 1971 49 1316 1200 634 566 1159 771 659 139 48 520 311 254 205 610 1744 1699 392 1307
internal_count=5958 5126 3967 1854 832 61 2113 2073 2004 69 1971 49 1316 1200 634 566 1159 771 659 139 48 520 311 254 205 610 1744 1699 392 1307
shrinkage=0.1


Tree=25
num_leaves=31
num_cat=0
split_feature=0 16 23 30 2 2 28 1 1 36 18 20 21 18 11 17 36 2 36 2 2 12 2 19 33 20 35 27 2 17
split_gain=17.672 8.8687 9.21922 12.4222 18.127 11.4346 11.2711 9.82097 14.259 10.4126 10.0188 8.7628 8.43279 7.78598 8.16149 7.4455 9.62525 8.16171 8.87811 8.03637 7.7798 12.5532 11.6128 11.2196 7.29892 6.87748 6.54034 6.43281 6.22965 6.12117
threshold=1.0000000180025095e-35 1.0000000180025095e-35 1.0000000180025095e-35 1.0000000180025095e-35 118.50000000000001 136.50000000000003 1.0000000180025095e-35 24832905.000000004 4750000.0000000009 3.5000000000000004 1.0000000180025095e-35 1.0000000180025095e-35 1.0000000180025095e-35 1.0000000180025095e-35 1.0000000180025095e-35 1.0000000180025095e-35 11.500000000000002 79.500000000000014 3.5000000000000004 101.33683587390856 46.500000000000007 1.0000000180025095e-35 25.500000000000004 1.0000000180025095e-35 1.0000000180025095e-35 1.0000000180025095e-35 1.5000000000000002 1.0000000180025095e-35 76.500000000000014 1.0000000180025095e-35
decision_type=2 2 2 2 2 2 2 2 2 2 2 2 2 2 2 2 2 2 2 2 2 2 2 2 2 2 2 2 2 2
left_child=1 2 3 7 6 -4 11 8 9 -1 -11 12 -5 15 28 16 17 20 19 -19 21 22 -9 27 -10 -3 -6 -22 -15 -27
right_child=-2 25 5 4 26 -7 -8 13 24 10 -12 -13 -14 14 -16 -17 -18 18 -20 -21 23 -23 -24 -25 -26 29 -28 -29 -30 -31
leaf_value=-0.074353171215348304 0.013518244440610245 0.000867358413599288 0.0078154384838511528 -0.039576742461034681 0.0019282588989219885 -0.049992574032189124 0.019640181110577384 0.051624867093882393 0.054224654874468051 0.057001535195857295 -0.020530900115147233 0.0090785278240218762 0.013659841695334763 -0.055664710443595361 -0.047324968083569459 0.009015442286247087 0.043729462614282968 -0.023811652658112123 -0.034776864580150384 0.049752564755854788 0.082174432181542925 -0.083733529393516845 -0.043170062762995565 -0.028582885608077049 -0.0036224819205958273 0.025222840897900903 0.055341793813051723 0.012374932027381401 -0.0085415523974455062 -0.010882895597319862
leaf_weight=21 832 1362 691 424 88 36 47 28 88 25 50 48 32 29 63 477 32 33 192 27 31 21 24 25 29 230 31 23 860 59
leaf_count=21 832 1362 691 424 88 36 47 28 88 25 50 48 32 29 63 477 32 33 192 27 31 21 24 25 29 230 31 23 860 59
internal_value=0 -0.00219414 -0.0050612 -0.00771049 -0.0195512 0.00495287 -0.0271952 -0.00389275 0.0164497 -0.0121138 0.00531324 -0.0315628 -0.0358408 -0.00621605 -0.0125436 0.000381769 -0.00906379 -0.0132454 -0.0242842 0.00929225 0.00505572 -0.0184793 0.00787336 0.0268033 0.0398865 0.0038404 0.0158427 0.052445 -0.0100788 0.0178518
internal_weight=0 5126 3475 2748 670 727 551 2078 213 96 75 504 456 1865 952 913 436 404 252 60 152 73 52 79 117 1651 119 54 889 289
internal_count=5958 5126 3475 2748 670 727 551 2078 213 96 75 504 456 1865 952 913 436 404 252 60 152 73 52 79 117 1651 119 54 889 289
shrinkage=0.1


Tree=26
num_leaves=31
num_cat=0
split_feature=0 37 2 8 19 2 32 1 2 8 2 2 35 36 2 2 2 2 2 37 33 27 19 29 2 37 5 10 2 32
split_gain=14.3143 8.20052 10.1477 6.20974 5.98841 11.4935 6.12688 7.35714 6.48132 6.20997 5.98355 7.48388 5.96752 9.10278 9.9541 6.80618 18.8002 11.1729 8.66297 7.22361 5.91315 9.80703 6.83887 9.14053 5.87103 6.02395 5.99559 12.025 11.9183 9.35594
threshold=1.0000000180025095e-35 -1.366025403784439 101.33683587390856 1.0000000180025095e-35 1.0000000180025095e-35 101.83683587390856 1.0000000180025095e-35 74250000.000000015 136.50000000000003 1.0000000180025095e-35 81.500000000000014 69.500000000000014 1.5000000000000002 3.5000000000000004 84.500000000000014 14.500000000000002 45.500000000000007 38.500000000000007 59.000000000000007 1.3660254037844386 1.0000000180025095e-35 1.0000000180025095e-35 1.0000000180025095e-35 1.0000000180025095e-35 82.500000000000014 0.50000000000000033 1.0000000180025095e-35 1.0000000180025095e-35 100.50000000000001 1.0000000180025095e-35
decision_type=2 2 2 2 2 2 2 2 2 2 2 2 2 2 2 2 2 2 2 2 2 2 2 2 2 2 2 2 2 2
left_child=1 4 12 -4 6 -6 8 9 10 -8 11 -1 15 14 -14 -3 17 -17 -18 20 22 -22 -20 -24 25 -2 27 28 -26 -28
right_child=24 2 3 -5 5 -7 7 -9 -10 -11 -12 -13 13 -15 -16 16 18 -19 19 -21 21 -23 23 -25 26 -27 29 -29 -30 -31
leaf_value=0.0023625484002488002 -0.05181390247972948 0.036985685132182859 0.0070400994948204669 -0.017457404810596596 0.037906321957116094 -0.04605020993727852 -0.021901646471204482 0.036633031964302065 -0.049440929598428988 -0.073743636101484308 -0.0012607980740547554 -0.069522358722363911 -0.031435917641612743 -0.0018439750158750338 0.045359266588063697 -0.026109895969812686 0.043010613278431059 -0.12293884415518155 -0.0035511949413463487 -0.017124506603512498 -0.064887279397933872 0.015253106791239519 0.048179584947009121 -0.013610413976204702 0.019988194070756436 0.011248362699354237 0.057125637000974484 0.014899977241774774 -0.082691465375515139 -0.017898181775076825
leaf_weight=28 28 33 1744 110 63 22 305 20 33 25 633 30 21 501 86 26 34 22 686 540 37 26 62 39 20 33 68 635 26 22
leaf_count=28 28 33 1744 110 63 22 305 20 33 25 633 30 21 501 86 26 34 22 686 540 37 26 62 39 20 33 68 635 26 22
internal_value=0 -0.00197473 0.000187203 0.00558663 -0.00937454 0.0161764 -0.0113967 -0.0222598 -0.00614524 -0.0258291 -0.00407758 -0.0348193 -0.0045504 0.00381071 0.0302873 -0.00792817 -0.00893507 -0.0704898 -0.00686019 -0.00808005 -0.00233416 -0.0318135 2.56778e-05 0.0243201 0.0121664 -0.0176983 0.0145293 0.0113235 -0.0380481 0.0387865
internal_weight=0 5126 3967 1854 1159 85 1074 350 724 330 691 58 2113 608 107 1505 1472 48 1424 1390 850 63 787 101 832 61 771 681 46 90
internal_count=5958 5126 3967 1854 1159 85 1074 350 724 330 691 58 2113 608 107 1505 1472 48 1424 1390 850 63 787 101 832 61 771 681 46 90
shrinkage=0.1


Tree=27
num_leaves=31
num_cat=0
split_feature=1 37 37 8 2 27 36 2 2 2 2 2 1 2 2 2 19 4 22 12 23 2 2 21 22 36 33 36 1 2
split_gain=12.2681 8.2952 16.7426 19.4908 11.8162 10.6558 8.46787 11.1655 8.77213 12.9175 9.74326 11.6227 8.228 8.74051 7.96522 7.75225 9.53828 7.79861 7.71466 7.3558 7.26807 7.11402 6.58809 6.54884 9.55963 18.2915 8.48693 8.25493 8.07536 7.9049
threshold=72500000.000000015 0.50000000000000033 1.3660254037844386 1.0000000180025095e-35 132.50000000000003 1.0000000180025095e-35 8.5000000000000018 117.50000000000001 70.500000000000014 12.500000000000002 38.500000000000007 54.500000000000007 7950000.0000000009 104.50000000000001 145.50000000000003 83.500000000000014 1.0000000180025095e-35 1.0000000180025095e-35 1.0000000180025095e-35 1.0000000180025095e-35 1.0000000180025095e-35 84.500000000000014 108.50000000000001 1.0000000180025095e-35 1.0000000180025095e-35 4.5000000000000009 1.0000000180025095e-35 4.5000000000000009 13550000.000000002 110.50000000000001
decision_type=2 2 2 2 2 2 2 2 2 2 2 2 2 2 2 2 2 2 2 2 2 2 2 2 2 2 2 2 2 2
left_child=1 5 3 4 20 6 8 12 9 -1 -11 -12 -8 21 -6 18 17 22 -7 23 -3 -14 -17 24 27 -26 -25 -10 -27 -30
right_child=-2 2 -4 -5 14 15 7 -9 19 10 11 -13 13 -15 -16 16 -18 -19 -20 -21 -22 -23 -24 26 25 28 -28 -29 29 -31
leaf_value=-0.044087207849536625 0.015226238021898226 0.010370481288210102 -0.0036572258582388928 -0.045184716403062618 0.10832731770756453 -0.0099357884452753783 0.011918461105475824 0.015147328824521258 -9.102355546840444e-05 0.10420099947601558 -0.025140725970268254 0.077135494579561065 -0.078571587070249596 -0.081730800589665462 0.024162620593878359 -0.00040404739051258992 0.049150249119038175 -0.056247052872045483 -0.073569210294796072 -0.028057038791520501 0.035757075323274844 -0.020306095011808255 0.017267237911453109 0.042727187642206753 -0.029299904164713876 0.079418704882264143 -0.0080377639028919885 -0.019814817190244673 0.03915519869222598 -0.022608876327673597
leaf_weight=21 486 685 1416 53 23 111 30 52 328 20 25 20 26 47 22 875 46 22 23 174 135 108 278 60 71 30 73 601 67 30
leaf_count=21 486 685 1416 53 23 111 30 52 328 20 25 20 26 47 22 875 46 22 23 174 135 108 278 60 71 30 73 601 67 30
internal_value=0 -0.00135233 0.00316224 0.0136812 0.017288 -0.0047102 -0.00979018 -0.0263576 -0.00692357 0.0240974 0.0461263 0.0203154 -0.0365863 -0.0446258 0.0671801 0.00197436 0.00448012 0.00273133 -0.0208579 -0.00878397 0.01455 -0.0316113 0.00385668 -0.00612245 -0.00859908 0.0113505 0.0148637 -0.012851 0.0340763 0.0200529
internal_weight=0 5472 2334 918 865 3138 1783 263 1520 86 65 45 211 181 45 1355 1221 1175 134 1434 820 134 1153 1260 1127 198 133 929 127 97
internal_count=5958 5472 2334 918 865 3138 1783 263 1520 86 65 45 211 181 45 1355 1221 1175 134 1434 820 134 1153 1260 1127 198 133 929 127 97
shrinkage=0.1


Tree=28
num_leaves=31
num_cat=0
split_feature=16 1 2 23 10 2 2 21 2 2 27 37 35 1 22 36 1 18 2 1 36 36 19 19 2 2 1 36 18 2
split_gain=10.7749 8.31766 11.9469 7.41986 9.60706 14.5744 23.0567 11.8886 12.4891 13.5275 16.1649 10.5358 10.1164 11.1256 13.4159 14.0783 9.38636 13.4401 8.80502 8.40334 10.0535 12.0917 11.6269 8.11795 7.7413 8.45931 7.56402 8.78352 7.44079 7.42164
threshold=1.0000000180025095e-35 72500000.000000015 155.50000000000003 1.0000000180025095e-35 1.0000000180025095e-35 38.500000000000007 50.500000000000007 1.0000000180025095e-35 126.50000000000001 79.500000000000014 1.0000000180025095e-35 0.50000000000000033 1.5000000000000002 38500000.000000007 1.0000000180025095e-35 4.5000000000000009 21500000.000000004 1.0000000180025095e-35 106.50000000000001 55500000.000000007 11.500000000000002 10.500000000000002 1.0000000180025095e-35 1.0000000180025095e-35 136.50000000000003 91.500000000000014 20000002.500000004 7.5000000000000009 1.0000000180025095e-35 102.50000000000001
decision_type=2 2 2 2 2 2 2 2 2 2 2 2 2 2 2 2 2 2 2 2 2 2 2 2 2 2 2 2 2 2
left_child=3 2 -2 4 28 -6 -7 8 9 11 12 -8 16 14 15 -14 17 -11 23 20 21 22 29 -12 25 -5 -17 -28 -1 -18
right_child=1 -3 -4 24 5 6 7 -9 -10 10 18 -13 13 -15 -16 26 19 -19 -20 -21 -22 -23 -24 -25 -26 -27 27 -29 -30 -31
leaf_value=0.0052798393235316023 0.0035352065731013311 0.018632338893819947 -0.074187546763569118 -0.012322578374750731 0.070101229509427432 -0.12039962396025659 -0.02083930019067512 0.024355747845831766 0.017989347773030972 -0.062293684077651602 -0.020756226276386194 0.072861324915928505 0.01633175092084067 0.036868527308106427 0.026690627995142064 -0.02352908669333709 -0.065006660301060906 0.0019914507054144873 0.031183365859012581 -0.011860297123693225 -0.1173678873349791 0.0061711965075560982 -0.11730387408419379 0.044856058941646057 -0.038564732876655301 0.013419885364176785 -0.13056701181287117 -0.049475116501836218 -0.0076048989248662371 -0.023491775518130156
leaf_weight=936 1773 399 20 164 21 20 21 83 104 46 132 28 35 40 43 38 105 111 71 57 23 35 28 22 38 576 22 34 860 73
leaf_count=936 1773 399 20 164 21 20 21 83 104 46 132 28 35 40 43 38 105 111 71 57 23 35 28 22 38 576 22 34 860 73
internal_value=0 0.00557412 0.00266825 -0.00324442 -0.00550936 -0.0124695 -0.0139503 -0.0121006 -0.0149338 -0.0184857 -0.021227 0.0327039 -0.028817 -0.0106353 -0.0216827 -0.0378071 -0.0368809 -0.0168437 0.00204902 -0.046681 -0.0541992 -0.0481706 -0.0574034 -0.011383 0.00545436 0.0077148 -0.0579653 -0.0813326 -0.000889913 -0.0479809
internal_weight=0 2192 1793 3766 2988 1192 1171 1151 1068 964 915 49 690 212 172 129 478 157 225 321 264 241 206 154 778 740 94 56 1796 178
internal_count=5958 2192 1793 3766 2988 1192 1171 1151 1068 964 915 49 690 212 172 129 478 157 225 321 264 241 206 154 778 740 94 56 1796 178
shrinkage=0.1


Tree=29
num_leaves=31
num_cat=0
split_feature=0 37 35 31 28 1 2 18 2 2 2 3 36 1 1 12 37 1 31 36 35 1 15 37 18 1 2 36 1 29
split_gain=9.66193 5.79828 6.74083 8.23502 10.407 9.99853 6.5386 11.2567 8.55954 15.9281 13.6982 8.09369 11.2435 7.70925 12.8553 10.4931 10.2619 13.2058 9.26317 8.35355 8.56522 6.94576 6.79991 6.6887 6.51461 13.3903 10.5807 6.28027 5.93252 5.87865
threshold=1.0000000180025095e-35 -1.366025403784439 1.5000000000000002 1.0000000180025095e-35 1.0000000180025095e-35 17789884.500000004 90.500000000000014 1.0000000180025095e-35 48.500000000000007 14.500000000000002 55.500000000000007 1.0000000180025095e-35 3.5000000000000004 24832905.000000004 10667987.000000002 1.0000000180025095e-35 1.0000000180025095e-35 25934413.000000004 1.0000000180025095e-35 11.500000000000002 1.0000000180025095e-35 29500000.000000004 1.0000000180025095e-35 -0.49999999999999989 1.0000000180025095e-35 19100741.500000004 100.50000000000001 10.500000000000002 31082600.000000004 1.0000000180025095e-35
decision_type=2 2 2 2 2 2 2 2 2 2 2 2 2 2 2 2 2 2 2 2 2 2 2 2 2 2 2 2 2 2
left_child=1 -1 6 5 -5 -4 7 8 9 -3 -10 22 -13 14 -8 16 17 -15 -17 20 -18 -22 27 -12 25 -16 -26 -9 -21 -25
right_child=-2 2 3 4 -6 -7 13 11 10 -11 23 12 -14 15 24 18 19 -19 -20 28 21 -23 -24 29 26 -27 -28 -29 -30 -31
leaf_value=-0.0078446656099911954 0.0099956089718874035 0.029406346347449083 -0.03581593453884125 6.9366497908683941e-05 0.033326099685260228 0.040647101983175442 -0.0025359452532773669 -0.013905559720823225 0.082670377691586819 -0.063834925972909295 0.037781372148452737 -0.11609753937968477 -0.030816164533965865 -0.048708254970443343 -0.032466379709933935 0.003297337242284067 0.0041544178045714872 0.0041549549093597557 0.063980428731212249 -0.058005463882632884 -0.065663842884275847 0.00095415819307853437 0.025085116876289251 0.0031241458749748799 0.10269813393921748 0.06862233351916075 0.029963313560389605 -0.066455880751212434 0.002514683030545712 -0.026690693525597456
leaf_weight=1159 832 28 20 906 105 118 275 94 21 53 41 22 52 134 38 774 494 73 26 46 34 29 32 242 24 20 120 30 25 91
leaf_count=1159 832 28 20 906 105 118 275 94 21 53 41 22 52 134 38 774 494 73 26 46 34 29 32 242 24 20 120 30 25 91
internal_value=0 -0.00162239 0.000195518 0.00665111 0.00352333 0.0295655 -0.00243666 -0.010768 -0.00199069 -0.0316034 0.00408178 -0.0289333 -0.0561701 0.000348355 0.0115339 -0.00291496 -0.0107564 -0.0300657 0.00526954 -0.00439172 -0.000273999 -0.0349984 -0.0160133 -0.000330945 0.0306885 0.0023918 0.0420858 -0.0266193 -0.0366956 -0.00502345
internal_weight=0 5126 3967 1149 1011 138 2818 706 476 81 395 230 74 2112 477 1635 835 207 800 628 557 63 156 374 202 58 144 124 71 333
internal_count=5958 5126 3967 1149 1011 138 2818 706 476 81 395 230 74 2112 477 1635 835 207 800 628 557 63 156 374 202 58 144 124 71 333
shrinkage=0.1


Tree=30
num_leaves=31
num_cat=0
split_feature=1 37 37 8 2 2 27 11 23 2 2 2 2 19 22 2 17 1 0 36 1 19 2 23 29 1 1 18 2 18
split_gain=8.15839 6.86804 14.2244 15.6407 7.72454 7.24748 6.974 8.27576 8.63117 8.0526 6.928 6.2145 6.21434 8.20727 6.22758 6.16421 6.13684 11.2933 9.59223 9.21033 10.0593 18.4217 12.6363 10.8263 11.0442 11.0574 9.9667 9.00597 8.13163 8.10623
threshold=131500000.00000001 0.50000000000000033 1.3660254037844386 1.0000000180025095e-35 132.50000000000003 147.50000000000003 1.0000000180025095e-35 1.0000000180025095e-35 1.0000000180025095e-35 78.500000000000014 152.50000000000003 142.50000000000003 83.500000000000014 1.0000000180025095e-35 1.0000000180025095e-35 84.500000000000014 1.0000000180025095e-35 10667987.000000002 1.0000000180025095e-35 7.5000000000000009 54500000.000000007 1.0000000180025095e-35 118.50000000000001 1.0000000180025095e-35 1.0000000180025095e-35 21500000.000000004 80500000.000000015 1.0000000180025095e-35 95.500000000000014 1.0000000180025095e-35
decision_type=2 2 2 2 2 2 2 2 2 2 2 2 2 2 2 2 2 2 2 2 2 2 2 2 2 2 2 2 2 2
left_child=1 6 3 4 15 -4 7 9 -9 -1 16 -6 14 -14 -8 -3 18 28 -11 20 21 22 23 24 25 -19 -22 -21 -18 -26
right_child=-2 2 5 -5 11 -7 12 8 -10 10 -12 -13 13 -15 -16 -17 17 19 -20 27 26 -23 -24 -25 29 -27 -28 -29 -30 -31
leaf_value=0.015455338801578311 0.020671253891905019 -0.0086255797858549553 -0.0039648610318993773 -0.040238267588341294 0.089994995337716932 0.040271691512316465 -0.0088099220046051994 0.0034683437248872171 0.063795877820146937 -0.010195853333820263 -0.060805341481630297 0.023117795925248753 0.0024242275379576794 0.045037605282553336 -0.065982363761767096 0.016489023668691517 -0.022541950729986035 0.033553018923848869 0.016269375105599868 -0.05856422981375764 0.065867239955280515 -0.08956171278324393 -0.077799193947403533 0.031000656808416051 0.061658726021647459 -0.047831909448867393 -0.018507344395454442 -0.0040394119373181976 0.044975763169879265 -0.022618192913276811
leaf_weight=119 185 112 1460 53 24 38 111 155 28 857 28 33 1178 47 23 767 30 20 163 116 28 36 27 60 25 101 28 41 44 21
leaf_count=119 185 112 1460 53 24 38 111 155 28 857 28 33 1178 47 23 767 30 20 163 116 28 36 27 60 25 101 28 41 44 21
internal_value=0 -0.000662425 0.00330228 0.0126099 0.0156023 -0.00284271 -0.00366311 -0.0075319 0.0126988 -0.00965473 -0.0114936 0.0512766 0.00182267 0.00405919 -0.0186231 0.013289 -0.010629 -0.018871 -0.00596661 -0.024237 -0.0151218 -0.0226146 -0.013126 -0.00543364 -0.0185238 -0.0343799 0.0236799 -0.0443253 0.0176037 0.0231845
internal_weight=0 5773 2487 989 936 1498 3286 1927 183 1744 1625 57 1359 1225 134 879 1597 577 1020 503 346 290 254 227 167 121 56 157 74 46
internal_count=5958 5773 2487 989 936 1498 3286 1927 183 1744 1625 57 1359 1225 134 879 1597 577 1020 503 346 290 254 227 167 121 56 157 74 46
shrinkage=0.1


Tree=31
num_leaves=31
num_cat=0
split_feature=16 1 23 10 2 2 21 2 2 27 37 35 1 19 25 2 2 2 36 18 0 1 2 2 2 2 17 37 17 37
split_gain=7.4132 5.74479 5.30641 7.69815 11.7244 17.7145 9.07678 9.65851 10.6547 12.2058 8.44372 7.90349 8.93183 11.5586 7.25352 6.87465 6.26701 6.44576 6.24482 9.55766 14.6836 10.4896 16.0145 14.1246 9.90076 6.88077 7.98155 14.9669 7.2743 6.79795
threshold=1.0000000180025095e-35 192500000.00000003 1.0000000180025095e-35 1.0000000180025095e-35 38.500000000000007 50.500000000000007 1.0000000180025095e-35 126.50000000000001 79.500000000000014 1.0000000180025095e-35 0.50000000000000033 1.5000000000000002 38500000.000000007 1.0000000180025095e-35 1.0000000180025095e-35 106.50000000000001 136.50000000000003 91.500000000000014 11.500000000000002 1.0000000180025095e-35 1.0000000180025095e-35 49950000.000000007 94.500000000000014 100.50000000000001 91.500000000000014 100.50000000000001 1.0000000180025095e-35 0.50000000000000033 1.0000000180025095e-35 0.50000000000000033
decision_type=2 2 2 2 2 2 2 2 2 2 2 2 2 2 2 2 2 2 2 2 2 2 2 2 2 2 2 2 2 2
left_child=2 -2 3 -1 -5 -6 7 8 10 11 -7 14 13 -13 18 -11 17 -4 19 20 21 22 -10 -24 -21 28 29 -28 -26 -27
right_child=1 -3 16 4 5 6 -8 -9 9 15 -12 12 -14 -15 -16 -17 -18 -19 -20 24 -22 -23 23 -25 25 26 27 -29 -30 -31
leaf_value=-0.00047140252633323123 0.0037647053848016525 0.035140010034665464 -0.010791800212166159 0.063221799280671842 -0.10547098826617003 -0.018646106687152671 0.021311019069279534 0.015933471661992372 -0.042004730130703945 -0.010218636466299075 0.065237356482871947 -0.0078128022093582779 0.033462792816571892 -0.079073579609394082 0.025167019682980719 0.027393401827348368 -0.034941124621974795 0.011679068980366639 -0.073755925341117148 -0.079616447476049276 -1.9136089831590654e-05 -0.0094834946095943458 -0.18602048111148181 -0.078230780363082897 -0.016032716716119253 -0.029486938409640326 -0.0087574874749407183 -0.11322451829910279 0.051526626745859783 0.023038369332524865
leaf_weight=1796 2132 60 164 21 20 21 83 104 53 154 28 145 40 27 21 71 38 576 38 24 45 26 20 31 34 56 32 24 30 44
leaf_count=1796 2132 60 164 21 20 21 83 104 53 154 28 145 40 27 21 71 38 576 38 24 45 26 20 31 34 56 32 24 30 44
internal_value=0 0.00462352 -0.00269112 -0.00460652 -0.0108369 -0.0121651 -0.0105438 -0.0130194 -0.0161429 -0.0185758 0.0292873 -0.0251712 -0.00910062 -0.0189991 -0.0322987 0.00165005 0.0046652 0.00669904 -0.0349394 -0.031419 -0.0492528 -0.0662953 -0.0804982 -0.120501 -0.0186283 -0.0119751 -0.0233026 -0.0535291 0.0156357 -0.0063758
internal_weight=0 2192 3766 2988 1192 1171 1151 1068 964 915 49 690 212 172 478 225 778 740 457 419 175 130 104 51 244 220 156 56 64 100
internal_count=5958 2192 3766 2988 1192 1171 1151 1068 964 915 49 690 212 172 478 225 778 740 457 419 175 130 104 51 244 220 156 56 64 100
shrinkage=0.1


Tree=32
num_leaves=31
num_cat=0
split_feature=1 5 5 1 1 17 28 35 1 16 10 12 2 2 2 16 37 2 36 28 13 37 12 2 2 37 36 13 29 2
split_gain=6.43291 14.3589 5.84527 10.0285 8.44293 6.64648 8.15605 8.87125 10.9745 9.97318 11.3625 12.3476 8.67271 39.9552 7.64922 14.4388 10.9879 9.76282 6.99953 6.57657 6.4115 7.75712 6.56858 7.63317 6.2466 5.49401 5.49398 5.4517 10.0972 5.18664
threshold=25454694.500000004 1.0000000180025095e-35 1.0000000180025095e-35 24832905.000000004 10000002.500000002 1.0000000180025095e-35 1.0000000180025095e-35 2.5000000000000004 10667987.000000002 1.0000000180025095e-35 1.0000000180025095e-35 1.0000000180025095e-35 102.50000000000001 106.50000000000001 87.500000000000014 1.0000000180025095e-35 -1.366025403784439 97.500000000000014 2.5000000000000004 1.0000000180025095e-35 1.0000000180025095e-35 0.50000000000000033 1.0000000180025095e-35 127.50000000000001 90.500000000000014 -0.49999999999999989 8.5000000000000018 1.0000000180025095e-35 1.0000000180025095e-35 18.500000000000004
decision_type=2 2 2 2 2 2 2 2 2 2 2 2 2 2 2 2 2 2 2 2 2 2 2 2 2 2 2 2 2 2
left_child=2 -2 5 4 -4 20 7 9 -9 10 -7 12 18 -14 -10 16 -16 -18 -12 27 22 -22 -1 26 -8 -20 -24 29 -29 -5
right_child=1 -3 3 19 -6 6 24 8 14 -11 11 -13 13 -15 15 -17 17 -19 25 -21 21 -23 23 -25 -26 -27 -28 28 -30 -31
leaf_value=0.0023438611260289772 0.004887233279018412 0.084630491811296227 0.008816174762976017 0.043356706440448763 0.049978436164762059 0.0087010619700278926 -0.034793796871478364 0.010712155921233667 0.0056847634166479113 0.018830657479145189 0.033002644146402041 -0.095820717036724096 -0.16688156319516045 -0.00096765804163953095 -0.091905537915640878 -0.13004687279462815 -0.071569751985371119 0.01601326474121639 0.0075686706838255027 0.054137216237458319 -0.045343755137707505 0.0071787231463067078 -0.02023268976532247 -0.070881404079820798 0.022128603337522673 -0.033884948814469996 0.018177796633658455 0.057920967187823316 -0.02271170619875193 -0.0025074212899915422
leaf_weight=1467 1238 23 157 25 73 115 24 37 20 94 31 25 21 47 29 24 20 35 49 22 70 47 138 23 98 92 51 41 25 1797
leaf_count=1467 1238 23 157 25 73 115 24 37 20 94 31 25 21 47 29 24 20 35 49 22 70 47 138 23 98 92 51 41 25 1797
internal_value=0 0.00634171 -0.00170255 0.00215357 0.0218807 -0.00492981 -0.0127621 -0.0172857 -0.0372562 -0.0103339 -0.0175483 -0.0289395 -0.0219728 -0.0522058 -0.051122 -0.0616418 -0.0420975 -0.0158351 -0.0100202 -0.000221954 -0.0016111 -0.024245 -3.38723e-05 -0.0164873 0.0109308 -0.0194791 -0.00986796 -0.000855377 0.0273783 -0.00187811
internal_weight=0 1261 4697 2140 230 2557 761 639 165 474 380 265 240 68 128 108 84 55 172 1910 1796 117 1679 212 122 141 189 1888 66 1822
internal_count=5958 1261 4697 2140 230 2557 761 639 165 474 380 265 240 68 128 108 84 55 172 1910 1796 117 1679 212 122 141 189 1888 66 1822
shrinkage=0.1


Tree=33
num_leaves=31
num_cat=0
split_feature=0 1 1 30 2 1 1 3 18 23 2 1 17 37 1 1 37 8 15 18 2 36 2 31 2 1 35 1 3 2
split_gain=5.72135 4.65925 6.3473 6.29737 6.54559 5.05937 6.96806 6.86637 14.306 31.5391 9.55059 8.84255 7.28469 7.05129 8.20704 10.7677 6.53556 6.31554 5.49492 5.04886 5.44135 8.26768 8.52528 7.91219 5.84845 5.17128 4.80406 4.73371 4.65818 8.72707
threshold=1.0000000180025095e-35 36500.000000000007 2011960.0000000002 1.0000000180025095e-35 90.500000000000014 23500000.000000004 19100741.500000004 1.0000000180025095e-35 1.0000000180025095e-35 1.0000000180025095e-35 107.50000000000001 7950000.0000000009 1.0000000180025095e-35 -0.49999999999999989 14900000.000000002 15887474.000000002 1.0000000180025095e-35 1.0000000180025095e-35 1.0000000180025095e-35 1.0000000180025095e-35 91.500000000000014 11.500000000000002 95.500000000000014 1.0000000180025095e-35 75.500000000000014 101000000.00000001 2.5000000000000004 7450000.0000000009 1.0000000180025095e-35 88.500000000000014
decision_type=2 2 2 2 2 2 2 2 2 2 2 2 2 2 2 2 2 2 2 2 2 2 2 2 2 2 2 2 2 2
left_child=1 -1 3 4 -3 6 7 11 9 10 12 17 27 -10 18 -16 -8 -4 -15 25 23 -22 -23 24 -21 -7 -13 -9 -26 -30
right_child=-2 2 5 -5 -6 19 16 8 13 -11 -12 26 -14 14 15 -17 -18 -19 -20 20 21 22 -24 -25 28 -27 -28 -29 29 -31
leaf_value=0.044672682906754996 0.0076917781831350746 -0.042759964153170592 0.0081919711552884272 -0.045952692107548793 0.021586508147938308 0.00032311167343011972 0.0053945631446207275 -0.039300448845394631 -0.011423256841186766 -0.12555249780416489 0.045579841561042347 0.049412558289865655 -0.055096461623907092 0.014281504893001042 0.1039528158047925 0.010021966351912572 0.049740722758265646 -0.049210681993028395 -0.041632902659475807 -0.0684375984860318 -0.0013534233704118929 -0.082954268789161817 -0.015675888750075289 0.0063102873083802739 -0.011734570055167474 0.0281959295536027 0.0046235642724615691 0.017510875551538033 -0.007277257662070425 -0.075050389487296351
leaf_weight=22 832 25 115 63 43 1885 68 22 129 28 26 81 41 145 23 26 65 23 20 28 1602 23 104 112 184 69 34 44 38 38
leaf_count=22 832 25 115 63 43 1885 68 22 129 28 26 81 41 145 23 26 65 23 20 28 1602 23 104 112 184 69 34 44 38 38
internal_value=0 -0.00124845 -0.00144639 -0.023174 -0.00207028 -0.000874032 0.00595774 0.0022489 -0.00449888 -0.0290899 -0.00878203 0.0156911 -0.0219915 0.00704387 0.0181759 0.054112 0.0270675 -0.00137514 0.007504 -0.0023632 -0.00573205 -0.00330042 -0.0278602 -0.0162428 -0.0250134 0.00130736 0.0361706 -0.00142623 -0.020337 -0.0411638
internal_weight=0 5126 5104 131 68 4973 890 757 504 161 133 253 107 343 214 49 133 138 165 4083 2129 1729 127 400 288 1954 115 66 260 76
internal_count=5958 5126 5104 131 68 4973 890 757 504 161 133 253 107 343 214 49 133 138 165 4083 2129 1729 127 400 288 1954 115 66 260 76
shrinkage=0.1


Tree=34
num_leaves=31
num_cat=0
split_feature=1 37 37 8 2 11 2 2 2 0 2 2 36 15 2 2 22 31 2 18 2 2 24 2 15 30 2 36 1 1
split_gain=5.13806 4.54363 9.90657 12.2738 6.45219 5.75637 5.54628 4.91669 4.84283 4.97564 5.34561 10.929 7.6225 5.09139 4.68538 4.58536 5.9481 11.836 7.94638 9.98466 6.97563 7.94603 9.67189 7.54435 5.46227 5.08783 6.66393 7.07101 10.2727 6.12558
threshold=192500000.00000003 0.50000000000000033 1.3660254037844386 1.0000000180025095e-35 132.50000000000003 1.0000000180025095e-35 147.50000000000003 64.500000000000014 138.50000000000003 1.0000000180025095e-35 123.50000000000001 120.50000000000001 10.500000000000002 1.0000000180025095e-35 142.50000000000003 62.500000000000007 1.0000000180025095e-35 1.0000000180025095e-35 101.33683587390856 1.0000000180025095e-35 85.500000000000014 87.500000000000014 1.0000000180025095e-35 75.500000000000014 1.0000000180025095e-35 1.0000000180025095e-35 90.500000000000014 11.500000000000002 16400000.000000002 23500000.000000004
decision_type=2 2 2 2 2 2 2 2 2 2 2 2 2 2 2 2 2 2 2 2 2 2 2 2 2 2 2 2 2 2
left_child=1 -1 3 4 7 6 8 -3 9 10 11 15 -12 -14 -6 -4 18 -18 20 -20 23 -22 24 -17 25 29 -27 28 -28 -23
right_child=-2 2 5 -5 14 -7 -8 -9 -10 -11 12 -13 13 -15 -16 16 17 -19 19 -21 21 22 -24 -25 -26 26 27 -29 -30 -31
leaf_value=-0.0027130210284527011 0.028181527471315349 -0.022323164298376514 0.029849099694955639 -0.036232962452296943 0.079178870345155403 -0.02256930329796572 0.036848143898905852 0.01272656813614894 -0.041132366862148051 0.01711741766885861 0.063063657309474622 -0.067366096184209551 -0.020585973188281061 0.041471889447420834 0.022137316471586625 -0.039703110530972481 -0.034834804630546432 0.031229240052840293 0.034224694956117512 -0.0013782915965026414 -0.067036916522516143 0.044657713949680329 -0.066440036957120072 0.029140208063062091 0.027950837199644349 -0.079134670467603779 -0.052774663134054704 -0.06220994967346391 0.032685396896722993 -0.008115014926367568
leaf_weight=3365 64 42 41 53 24 127 39 850 30 143 29 27 39 20 36 20 134 34 119 233 27 25 29 78 41 21 22 24 39 183
leaf_count=3365 64 42 41 53 24 127 39 850 30 143 29 27 39 20 36 20 134 34 119 233 27 25 29 78 41 21 22 24 39 183
